{"learner":{"attributes":{"best_iteration":"57","best_msg":"[58]\ttrain-auc:1.000000\ttest-auc:0.952381","best_ntreelimit":"58","best_score":"0.95238095238095233","niter":"82"},"feature_names":[],"feature_types":[],"gradient_booster":{"model":{"gbtree_model_param":{"num_parallel_tree":"1","num_trees":"83","size_leaf_vector":"0"},"tree_info":[0,0,0,0,0,0,0,0,0,0,0,0,0,0,0,0,0,0,0,0,0,0,0,0,0,0,0,0,0,0,0,0,0,0,0,0,0,0,0,0,0,0,0,0,0,0,0,0,0,0,0,0,0,0,0,0,0,0,0,0,0,0,0,0,0,0,0,0,0,0,0,0,0,0,0,0,0,0,0,0,0,0,0],"trees":[{"base_weights":[-2.6518976E-2,2.224675E0,-4.5903057E-1,-2.4036282E-1,3.4981241E0,1.3624185E0,-6.892713E-1,4.0516114E-1,-6.677195E-1,9.631145E-1,4.716217E0,-2.4036282E-1,3.2818098E0,-8.330989E-1,8.673962E-1,-6.677195E-1,4.0516114E-1,8.3879477E-1,-9.4232494E-1,-6.5348357E-1,2.2150764E0,-1.0299077E0,2.4983345E-1,-1.0612816E0,-8.011663E-2],"categories":[],"categories_nodes":[],"categories_segments":[],"categories_sizes":[],"default_left":[1,1,1,1,0,0,1,0,0,0,0,1,0,0,1,0,0,0,0,0,0,1,0,0,0],"id":0,"left_children":[1,3,5,7,9,11,13,-1,-1,-1,-1,15,-1,17,19,-1,-1,-1,21,-1,-1,23,-1,-1,-1],"loss_changes":[4.7435654E1,2.5494041E1,1.8056206E1,1.2666675E0,1.1646568E1,1.59132805E1,8.984186E0,0E0,0E0,0E0,0E0,1.2666675E0,0E0,7.052061E0,8.84862E0,0E0,0E0,0E0,3.6671143E0,0E0,0E0,8.273239E-1,0E0,0E0,0E0],"parents":[2147483647,0,0,1,1,2,2,3,3,4,4,5,5,6,6,11,11,13,13,14,14,18,18,21,21],"right_children":[2,4,6,8,10,12,14,-1,-1,-1,-1,16,-1,18,20,-1,-1,-1,22,-1,-1,24,-1,-1,-1],"split_conditions":[-9.536743E-7,-9.536743E-7,-9.536743E-7,-9.536743E-7,6.5384614E-1,2.8458214E-1,-9.536743E-7,4.0516116E-2,-6.677195E-2,9.631145E-2,4.7162172E-1,-9.536743E-7,3.28181E-1,1.3636363E-1,-9.536743E-7,-6.677195E-2,4.0516116E-2,8.387948E-2,7.205882E-1,-6.534836E-2,2.2150765E-1,-9.536743E-7,2.4983345E-2,-1.06128156E-1,-8.011663E-3],"split_indices":[5145,10500,12284,2912,14778,14431,1483,0,0,0,0,825,0,14384,12822,0,0,0,14663,0,0,3263,0,0,0],"split_type":[0,0,0,0,0,0,0,0,0,0,0,0,0,0,0,0,0,0,0,0,0,0,0,0,0],"sum_hessian":[4.6669724E1,6.853596E0,3.9816128E1,2.6108937E0,4.2427025E0,3.9163406E0,3.5899788E1,1.0606756E0,1.5502181E0,1.9581703E0,2.284532E0,2.6108937E0,1.3054469E0,3.3288895E1,2.6108937E0,1.5502181E0,1.0606756E0,1.6318085E0,3.1657087E1,1.4686277E0,1.142266E0,2.9617325E1,2.0397608E0,2.855665E1,1.0606756E0],"tree_param":{"num_deleted":"0","num_feature":"14830","num_nodes":"25","size_leaf_vector":"0"}},{"base_weights":[-1.2955595E-2,1.1684345E0,-6.964248E-1,3.811739E0,6.149441E-1,-8.178794E-1,1.3545496E0,1.0068509E-1,1.9983133E0,-9.1208476E-1,7.5765365E-1,1.0739484E0,-4.9784318E-1,-1.7774597E-1,3.0058775E0,-8.724042E-2,-1.0474848E0,-4.649632E-1,2.5081213E0,-8.172184E-1,9.102759E-1,1.3669442E0,-8.1822395E-1,-5.1353954E-2,-6.248178E-1,-9.282281E-1,-5.4682046E-2],"categories":[],"categories_nodes":[],"categories_segments":[],"categories_sizes":[],"default_left":[1,1,1,0,1,0,0,0,1,1,0,1,1,0,0,1,0,0,0,1,0,0,0,0,0,0,0],"id":1,"left_children":[1,3,5,-1,7,9,-1,11,13,15,-1,17,19,-1,-1,21,-1,23,-1,25,-1,-1,-1,-1,-1,-1,-1],"loss_changes":[3.8781452E1,2.3415829E1,8.684274E0,0E0,1.1004155E1,5.0455303E0,0E0,7.8368835E0,9.776747E0,3.0510368E0,0E0,1.2400498E1,4.5419E0,0E0,0E0,6.495357E0,0E0,1.8603611E-1,0E0,5.7656574E-1,0E0,0E0,0E0,0E0,0E0,0E0,0E0],"parents":[2147483647,0,0,1,1,2,2,4,4,5,5,7,7,8,8,9,9,11,11,12,12,15,15,17,17,19,19],"right_children":[2,4,6,-1,8,10,-1,12,14,16,-1,18,20,-1,-1,22,-1,24,-1,26,-1,-1,-1,-1,-1,-1,-1],"split_conditions":[-9.536743E-7,7.850877E-1,5.7073957E-1,3.811739E-1,-9.536743E-7,9.4578314E-1,1.3545497E-1,7.907524E-3,-9.536743E-7,3.6896553E-2,7.5765364E-2,-9.536743E-7,2.7665704E-1,-1.7774597E-2,3.0058774E-1,-9.536743E-7,-1.0474848E-1,4.235294E-1,2.5081214E-1,-9.536743E-7,9.102759E-2,1.3669442E-1,-8.1822395E-2,-5.1353956E-3,-6.248178E-2,-9.282281E-2,-5.4682046E-3],"split_indices":[3905,14533,14434,0,13149,14752,0,14396,2256,14729,0,13693,14431,0,0,3023,0,14663,0,12937,0,0,0,0,0,0,0],"split_type":[0,0,0,0,0,0,0,0,0,0,0,0,0,0,0,0,0,0,0,0,0,0,0,0,0,0,0],"sum_hessian":[4.602213E1,1.6607014E1,2.9415117E1,1.856101E0,1.4750912E1,2.833821E1,1.0769082E0,1.1535459E1,3.2154531E0,2.7136726E1,1.2014837E0,4.090159E0,7.445299E0,1.27829E0,1.9371632E0,4.058294E0,2.3078432E1,2.2990282E0,1.791131E0,6.410886E0,1.0344136E0,1.0665474E0,2.9917464E0,1.0091635E0,1.2898647E0,5.4065175E0,1.0043684E0],"tree_param":{"num_deleted":"0","num_feature":"14830","num_nodes":"27","size_leaf_vector":"0"}},{"base_weights":[1.5380208E-3,1.0244007E0,-6.654838E-1,1.20041005E-1,1.9763075E0,3.193007E-1,-9.48678E-1,-5.4055387E-1,1.1851729E0,2.669577E0,-6.8595594E-1,-5.403664E-1,2.1031787E0,-1.034593E0,4.1829923E-1,5.374561E-1,-9.121379E-1,-5.7151765E-1,1.9430622E0,3.2873116E0,3.9673924E-1,-8.5333747E-1,4.5028472E-1,2.609605E-1,2.855131E0,1.1068038E0,3.9618864E0],"categories":[],"categories_nodes":[],"categories_segments":[],"categories_sizes":[],"default_left":[1,0,1,1,1,1,0,0,1,1,0,1,0,0,0,0,0,0,0,1,0,0,0,0,0,0,0],"id":2,"left_children":[1,3,5,7,9,11,13,15,17,19,-1,21,-1,-1,-1,-1,-1,-1,23,25,-1,-1,-1,-1,-1,-1,-1],"loss_changes":[3.223582E1,1.581687E1,8.278976E0,8.11866E0,1.8480755E1,1.2079449E1,3.0710335E0,3.3929298E0,6.943938E0,9.031494E0,0E0,2.1238546E0,0E0,0E0,0E0,0E0,0E0,0E0,4.299675E0,3.927246E0,0E0,0E0,0E0,0E0,0E0,0E0,0E0],"parents":[2147483647,0,0,1,1,2,2,3,3,4,4,5,5,6,6,7,7,8,8,9,9,11,11,18,18,19,19],"right_children":[2,4,6,8,10,12,14,16,18,20,-1,22,-1,-1,-1,-1,-1,-1,24,26,-1,-1,-1,-1,-1,-1,-1],"split_conditions":[-9.536743E-7,6.551724E-2,-9.536743E-7,-9.536743E-7,7.5E-1,-9.536743E-7,7.8888893E-1,2.1470019E-1,-9.536743E-7,-9.536743E-7,-6.8595596E-2,1.6034482E-2,2.1031788E-1,-1.034593E-1,4.1829925E-2,5.374561E-2,-9.121379E-2,-5.7151765E-2,6.333333E-1,-9.536743E-7,3.9673924E-2,-8.533375E-2,4.5028474E-2,2.609605E-2,2.855131E-1,1.1068038E-1,3.9618865E-1],"split_indices":[3905,14729,11559,11080,14633,10641,14487,14604,10500,12211,0,14761,0,0,0,0,0,0,14487,9012,0,0,0,0,0,0,0],"split_type":[0,0,0,0,0,0,0,0,0,0,0,0,0,0,0,0,0,0,0,0,0,0,0,0,0,0,0],"sum_hessian":[4.524858E1,1.7648788E1,2.7599794E1,9.6279E0,8.020887E0,6.1357465E0,2.1464048E1,6.2463894E0,3.381511E0,6.361553E0,1.6593337E0,4.610829E0,1.5249174E0,2.0423573E1,1.0404764E0,1.486752E0,4.759638E0,1.093297E0,2.2882137E0,4.6510873E0,1.7104659E0,3.6092026E0,1.0016264E0,1.2566781E0,1.0315357E0,1.722852E0,2.9282353E0],"tree_param":{"num_deleted":"0","num_feature":"14830","num_nodes":"27","size_leaf_vector":"0"}},{"base_weights":[1.10869E-2,9.035188E-1,-6.357759E-1,2.250158E0,3.8099742E-1,3.0297768E-1,-9.3033445E-1,3.0870621E0,-1.8761694E-1,1.1154252E0,-3.7466294E-1,-4.0582848E-1,2.056713E0,-1.0222323E0,3.8973E-1,-4.093717E-1,1.7023466E0,-8.101574E-1,1.3237613E0,8.5907996E-1,-8.644245E-1,-5.180638E-2,-5.61237E-1,-2.279746E-1,2.3131847E0,-5.9540547E-2,-9.218496E-1,2.830409E0,8.2164365E-1],"categories":[],"categories_nodes":[],"categories_segments":[],"categories_sizes":[],"default_left":[1,1,1,1,1,1,0,0,0,1,1,1,0,0,0,1,0,0,0,0,0,0,0,0,1,0,0,0,0],"id":3,"left_children":[1,3,5,7,9,11,13,-1,-1,15,17,19,-1,-1,-1,21,23,25,-1,-1,-1,-1,-1,-1,27,-1,-1,-1,-1],"loss_changes":[2.6851967E1,1.289326E1,7.7416716E0,1.1308632E1,8.899509E0,9.781652E0,2.9192505E0,0E0,0E0,7.8579054E0,7.197581E0,4.200504E0,0E0,0E0,0E0,1.3546413E-1,7.56855E0,5.4970074E-1,0E0,0E0,0E0,0E0,0E0,0E0,1.2430973E0,0E0,0E0,0E0,0E0],"parents":[2147483647,0,0,1,1,2,2,3,3,4,4,5,5,6,6,9,9,10,10,11,11,15,15,16,16,17,17,24,24],"right_children":[2,4,6,8,10,12,14,-1,-1,16,18,20,-1,-1,-1,22,24,26,-1,-1,-1,-1,-1,-1,28,-1,-1,-1,-1],"split_conditions":[-9.536743E-7,5.309278E-1,-9.536743E-7,8.9354837E-1,6.25E-2,5.032468E-1,7.8888893E-1,3.0870622E-1,-1.8761694E-2,-9.536743E-7,-9.536743E-7,4.448276E-2,2.0567131E-1,-1.0222323E-1,3.8973E-2,-9.536743E-7,8.3474576E-1,5.280374E-2,1.3237613E-1,8.5907996E-2,-8.6442456E-2,-5.180638E-3,-5.61237E-2,-2.279746E-2,-9.536743E-7,-5.9540546E-3,-9.218496E-2,2.830409E-1,8.216437E-2],"split_indices":[3905,14557,11559,14576,14496,14439,14487,0,0,2371,1516,14729,0,0,0,3838,14709,14711,0,0,0,0,0,0,12028,0,0,0,0],"split_type":[0,0,0,0,0,0,0,0,0,0,0,0,0,0,0,0,0,0,0,0,0,0,0,0,0,0,0,0,0],"sum_hessian":[4.4519478E1,1.8541828E1,2.5977648E1,4.2590594E0,1.4282769E1,6.197553E0,1.9780096E1,2.9723039E0,1.2867556E0,7.001705E0,7.281064E0,4.9610434E0,1.2365098E0,1.8703638E1,1.0764565E0,2.0301003E0,4.971605E0,6.2113905E0,1.0696737E0,1.0876856E0,3.8733578E0,1.0049914E0,1.025109E0,1.3457282E0,3.6258764E0,1.0031161E0,5.2082744E0,2.02576E0,1.6001166E0],"tree_param":{"num_deleted":"0","num_feature":"14830","num_nodes":"29","size_leaf_vector":"0"}},{"base_weights":[2.0441633E-2,8.080727E-1,-6.058515E-1,1.7833438E0,2.6909122E-1,2.957987E-1,-9.122033E-1,-5.53766E-1,2.2731574E0,-1.15503915E-1,1.5808145E0,-5.025053E-1,1.6412948E0,-1.0104178E0,3.631975E-1,2.8327403E0,4.2738602E-1,-6.888406E-1,6.8918324E-1,3.1771502E-1,2.1086676E0,4.2870384E-1,-8.281376E-1,-9.2356235E-1,3.0981886E-1,-1.5527773E-1,1.8887335E0,8.2623523E-1,-7.555384E-1],"categories":[],"categories_nodes":[],"categories_segments":[],"categories_sizes":[],"default_left":[1,1,1,0,1,1,0,0,1,0,1,1,0,0,0,0,0,1,1,0,0,0,0,0,0,1,0,0,0],"id":4,"left_children":[1,3,5,7,9,11,13,-1,15,17,19,21,-1,-1,-1,-1,-1,23,25,-1,-1,-1,-1,-1,-1,27,-1,-1,-1],"loss_changes":[2.2511763E1,1.0140028E1,7.297037E0,9.287397E0,7.341117E0,8.565775E0,2.776228E0,0E0,4.980423E0,5.9669967E0,1.5204306E0,1.9587568E0,0E0,0E0,0E0,0E0,0E0,2.032872E0,5.8168826E0,0E0,0E0,0E0,0E0,0E0,0E0,3.054025E0,0E0,0E0,0E0],"parents":[2147483647,0,0,1,1,2,2,3,3,4,4,5,5,6,6,8,8,9,9,10,10,11,11,17,17,18,18,25,25],"right_children":[2,4,6,8,10,12,14,-1,16,18,20,22,-1,-1,-1,-1,-1,24,26,-1,-1,-1,-1,-1,-1,28,-1,-1,-1],"split_conditions":[-9.536743E-7,5E-1,-9.536743E-7,1.0148108E-2,-9.536743E-7,-9.536743E-7,7.8888893E-1,-5.53766E-2,-9.536743E-7,7.361111E-1,-9.536743E-7,-9.536743E-7,1.6412948E-1,-1.0104179E-1,3.631975E-2,2.8327402E-1,4.27386E-2,-9.536743E-7,2.1967655E-1,3.1771503E-2,2.1086676E-1,4.2870384E-2,-8.281376E-2,-9.2356235E-2,3.0981887E-2,1.8571429E-1,1.8887335E-1,8.262353E-2,-7.555384E-2],"split_indices":[3905,14643,11559,14525,14360,10641,14487,0,10370,14456,76,9541,0,0,0,0,0,8846,14413,0,0,0,0,0,0,14406,0,0,0],"split_type":[0,0,0,0,0,0,0,0,0,0,0,0,0,0,0,0,0,0,0,0,0,0,0,0,0,0,0,0,0],"sum_hessian":[4.364369E1,1.9203266E1,2.4440422E1,6.0134234E0,1.3189843E1,6.2068787E0,1.8233543E1,1.0193071E0,4.9941163E0,1.0904582E1,2.285261E0,4.2887964E0,1.9180822E0,1.7122742E1,1.1108019E0,3.4219604E0,1.572156E0,6.4517193E0,4.4528627E0,1.1456753E0,1.1395855E0,1.0291663E0,3.25963E0,5.284796E0,1.1669233E0,3.1241047E0,1.328758E0,1.042692E0,2.0814128E0],"tree_param":{"num_deleted":"0","num_feature":"14830","num_nodes":"29","size_leaf_vector":"0"}},{"base_weights":[2.9592998E-2,7.3783916E-1,-5.7801074E-1,1.6956515E0,3.1961054E-1,-7.2193074E-1,1.1582662E0,2.203101E0,-1.6079849E-1,9.071145E-1,-3.552727E-1,5.788817E-1,-8.774685E-1,-3.851841E-1,1.3399218E0,-7.8307056E-1,1.0814989E0,-5.4074645E-1,1.4278631E0,-9.641301E-1,2.571515E-1,-2.4236652E-1,1.792578E0,-8.994335E-1,-5.97224E-2,-1.0111761E0,-4.7541093E-2,2.0775502E0,3.4597594E-1,6.6965437E-1,2.4168317E0],"categories":[],"categories_nodes":[],"categories_segments":[],"categories_sizes":[],"default_left":[1,1,1,1,1,1,0,0,0,1,1,0,0,0,0,1,0,0,0,1,0,0,1,0,0,0,0,1,0,0,0],"id":5,"left_children":[1,3,5,7,9,11,-1,-1,-1,13,15,17,19,-1,21,23,-1,-1,-1,25,-1,-1,27,-1,-1,-1,-1,29,-1,-1,-1],"loss_changes":[1.9228083E1,7.7156363E0,6.852663E0,6.037693E0,6.500014E0,5.131094E0,0E0,0E0,0E0,5.3324285E0,5.745477E0,3.6645107E0,2.2938538E0,0E0,5.214555E0,5.120163E-1,0E0,0E0,0E0,7.9458046E-1,0E0,0E0,1.469593E0,0E0,0E0,0E0,0E0,4.0452194E-1,0E0,0E0,0E0],"parents":[2147483647,0,0,1,1,2,2,3,3,4,4,5,5,9,9,10,10,11,11,12,12,14,14,15,15,19,19,22,22,27,27],"right_children":[2,4,6,8,10,12,-1,-1,-1,14,16,18,20,-1,22,24,-1,-1,-1,26,-1,-1,28,-1,-1,-1,-1,30,-1,-1,-1],"split_conditions":[-9.536743E-7,5.309278E-1,5.7073957E-1,8.9354837E-1,6.25E-2,1.0590778E-1,1.1582662E-1,2.2031009E-1,-1.6079849E-2,-9.536743E-7,-9.536743E-7,3.25E-1,8.111111E-1,-3.851841E-2,8.3474576E-1,-9.536743E-7,1.08149886E-1,-5.4074645E-2,1.4278631E-1,-9.536743E-7,2.5715152E-2,-2.4236653E-2,-9.536743E-7,-8.994335E-2,-5.97224E-3,-1.0111761E-1,-4.7541093E-3,-9.536743E-7,3.4597594E-2,6.696544E-2,2.4168317E-1],"split_indices":[3905,14557,14434,14576,14496,14431,0,0,0,2371,1516,14549,14487,0,14709,13117,0,0,0,1795,0,0,3450,0,0,0,0,9026,0,0,0],"split_type":[0,0,0,0,0,0,0,0,0,0,0,0,0,0,0,0,0,0,0,0,0,0,0,0,0,0,0,0,0,0,0],"sum_hessian":[4.269082E1,1.9613838E1,2.3076982E1,5.033023E0,1.4580816E1,2.185004E1,1.226942E0,3.8059587E0,1.2270639E0,7.6110697E0,6.9697466E0,2.0428894E0,1.980715E1,1.9371274E0,5.673942E0,5.721232E0,1.2485142E0,1.0375903E0,1.0052991E0,1.8541243E1,1.2659072E0,1.3654593E0,4.3084826E0,4.718715E0,1.0025171E0,1.7537878E1,1.0033654E0,3.2350397E0,1.0734429E0,1.2056731E0,2.0293665E0],"tree_param":{"num_deleted":"0","num_feature":"14830","num_nodes":"31","size_leaf_vector":"0"}},{"base_weights":[3.7488867E-2,6.7404276E-1,-5.4833186E-1,6.94281E-2,1.1899967E0,3.2019585E-1,-8.80012E-1,-6.9373757E-1,6.518553E-1,1.5439237E0,-6.5553343E-1,-3.423409E-1,1.6114334E0,-9.906035E-1,3.301987E-1,-8.3056843E-1,-6.66404E-2,-1.9590823E-1,1.6248776E0,-1.8267095E-1,1.797203E0,9.1515326E-1,-8.35156E-1,-7.5957984E-1,7.34011E-1,2.1499732E0,2.6921925E-1,8.1587255E-1,2.3641646E0],"categories":[],"categories_nodes":[],"categories_segments":[],"categories_sizes":[],"default_left":[1,0,1,0,1,1,0,1,1,1,0,1,0,0,0,0,0,1,0,0,1,0,0,0,0,0,0,0,0],"id":6,"left_children":[1,3,5,7,9,11,13,15,17,19,-1,21,-1,-1,-1,-1,-1,23,-1,-1,25,-1,-1,-1,-1,27,-1,-1,-1],"loss_changes":[1.6289793E1,6.439928E0,6.8450837E0,5.203426E0,8.340523E0,6.5653224E0,2.5694332E0,3.832183E-1,5.7444897E0,4.575548E0,0E0,4.154442E0,0E0,0E0,0E0,0E0,0E0,2.8679092E0,0E0,0E0,4.0363464E0,0E0,0E0,0E0,0E0,1.7951965E-2,0E0,0E0,0E0],"parents":[2147483647,0,0,1,1,2,2,3,3,4,4,5,5,6,6,7,7,8,8,9,9,11,11,17,17,20,20,25,25],"right_children":[2,4,6,8,10,12,14,16,18,20,-1,22,-1,-1,-1,-1,-1,24,-1,-1,26,-1,-1,-1,-1,28,-1,-1,-1],"split_conditions":[-9.536743E-7,6.551724E-2,-9.536743E-7,4.1911763E-1,7.5E-1,5.032468E-1,7.8888893E-1,1.5902965E-1,-9.536743E-7,-9.536743E-7,-6.5553345E-2,4.310345E-2,1.6114335E-1,-9.906035E-2,3.301987E-2,-8.3056845E-2,-6.66404E-3,-9.536743E-7,1.6248776E-1,-1.8267095E-2,-9.536743E-7,9.1515325E-2,-8.351561E-2,-7.5957984E-2,7.34011E-2,8.1428576E-1,2.6921926E-2,8.1587255E-2,2.3641646E-1],"split_indices":[3905,14729,11559,14663,14633,14439,14487,14413,2172,9526,0,14729,0,0,0,0,0,11785,0,0,8983,0,0,0,0,14490,0,0,0],"split_type":[0,0,0,0,0,0,0,0,0,0,0,0,0,0,0,0,0,0,0,0,0,0,0,0,0,0,0,0,0],"sum_hessian":[4.169219E1,1.9908731E1,2.1783459E1,9.689162E0,1.0219568E1,6.029476E0,1.5753983E1,4.1111407E0,5.578022E0,8.712208E0,1.5073602E0,4.470518E0,1.5589585E0,1.4601161E1,1.1528218E0,3.1084254E0,1.0027151E0,3.4076788E0,2.170343E0,1.1501892E0,7.562019E0,1.0174206E0,3.4530973E0,2.2356896E0,1.1719893E0,5.812909E0,1.7491096E0,1.4694512E0,4.343458E0],"tree_param":{"num_deleted":"0","num_feature":"14830","num_nodes":"29","size_leaf_vector":"0"}},{"base_weights":[4.0756803E-2,6.1052924E-1,-5.2040815E-1,3.1382883E-1,1.4982426E0,3.0817768E-1,-8.6183304E-1,6.011395E-1,-6.384656E-1,1.6229492E-1,1.8410208E0,-2.4963059E-1,1.7836848E0,-9.8231924E-1,3.448934E-1,2.6162788E-2,1.1327982E0,-6.1121657E-2,-7.8940165E-1,-8.4665626E-1,9.748837E-1,-6.427072E-1,7.332294E-1,1.5069379E0,-5.551368E-1,-7.865797E-1,-7.57896E-2,-2.1765238E-1,1.2523038E0,1.9387035E0,3.0441794E-1],"categories":[],"categories_nodes":[],"categories_segments":[],"categories_sizes":[],"default_left":[1,0,1,1,1,1,1,1,0,0,0,1,0,0,0,1,1,0,0,0,0,1,0,1,0,0,0,0,0,0,0],"id":7,"left_children":[1,3,5,7,9,11,13,15,17,-1,-1,19,-1,-1,-1,21,23,-1,-1,-1,-1,25,27,29,-1,-1,-1,-1,-1,-1,-1],"loss_changes":[1.3670593E1,5.1089063E0,6.3705277E0,5.0736623E0,2.0097857E0,6.2345047E0,2.599081E0,4.1531963E0,3.4021378E-1,0E0,0E0,5.1982517E0,0E0,0E0,0E0,4.0643477E0,5.3113813E0,0E0,0E0,0E0,0E0,3.022896E-1,2.3260345E0,2.5610685E0,0E0,0E0,0E0,0E0,0E0,0E0,0E0],"parents":[2147483647,0,0,1,1,2,2,3,3,4,4,5,5,6,6,7,7,8,8,11,11,15,15,16,16,21,21,22,22,23,23],"right_children":[2,4,6,8,10,12,14,16,18,-1,-1,20,-1,-1,-1,22,24,-1,-1,-1,-1,26,28,30,-1,-1,-1,-1,-1,-1,-1],"split_conditions":[-9.536743E-7,1.0697116E-1,-9.536743E-7,7.876712E-2,-9.536743E-7,4.1318327E-1,-9.536743E-7,-9.536743E-7,6.25E-1,1.6229494E-2,1.8410209E-1,5E-5,1.783685E-1,-9.823193E-2,3.448934E-2,4.75E-1,9E-1,-6.1121657E-3,-7.894017E-2,-8.466563E-2,9.7488366E-2,-9.536743E-7,2.8167117E-1,-9.536743E-7,-5.551368E-2,-7.865798E-2,-7.57896E-3,-2.1765238E-2,1.2523039E-1,1.9387035E-1,3.0441795E-2],"split_indices":[3905,14461,11559,14714,6916,14434,8595,8515,14456,0,0,14762,0,0,0,14414,14576,0,0,0,0,7140,14413,7291,0,0,0,0,0,0,0],"split_type":[0,0,0,0,0,0,0,0,0,0,0,0,0,0,0,0,0,0,0,0,0,0,0,0,0,0,0,0,0,0,0],"sum_hessian":[4.0762127E1,2.0182297E1,2.0579832E1,1.6141012E1,4.041285E0,6.033888E0,1.4545944E1,1.2683192E1,3.4578192E0,1.126055E0,2.91523E0,4.9814806E0,1.0524074E0,1.3394525E1,1.1514193E0,6.597431E0,6.0857615E0,1.0078094E0,2.4500098E0,3.5561955E0,1.4252853E0,3.4370642E0,3.1603668E0,5.0693445E0,1.016417E0,2.4323213E0,1.0047427E0,1.3210515E0,1.8393153E0,3.2796004E0,1.7897439E0],"tree_param":{"num_deleted":"0","num_feature":"14830","num_nodes":"31","size_leaf_vector":"0"}},{"base_weights":[4.4606518E-2,5.5663913E-1,-4.9206927E-1,1.1505873E0,1.8179828E-1,3.022882E-1,-8.430269E-1,1.7484237E0,2.716347E-1,-2.770616E-1,8.456483E-1,-2.4708164E-1,1.7530183E0,-9.706615E-1,3.5909894E-1,1.0447795E0,-6.831681E-1,-8.853382E-1,4.7784445E-1,1.3123314E0,-5.92985E-1,9.091982E-1,-6.714987E-1,-2.4978785E-1,1.3083179E0,-1.4249155E-1,1.7479306E0,-6.665531E-2,-8.107436E-1,3.346917E-1,-6.422637E-1],"categories":[],"categories_nodes":[],"categories_segments":[],"categories_sizes":[],"default_left":[1,1,1,1,1,1,0,0,1,0,1,1,0,0,0,0,0,0,1,1,0,0,0,0,0,0,0,0,0,0,0],"id":8,"left_children":[1,3,5,7,9,11,13,-1,15,17,19,21,-1,-1,-1,-1,-1,-1,23,25,-1,-1,27,29,-1,-1,-1,-1,-1,-1,-1],"loss_changes":[1.1484081E1,4.5431767E0,5.955669E0,3.7663498E0,4.582488E0,6.013775E0,2.5651493E0,0E0,3.9998007E0,4.64467E0,4.8607845E0,3.5330768E0,0E0,0E0,0E0,0E0,0E0,0E0,3.1982198E0,3.3559675E0,0E0,0E0,3.6129856E-1,9.885706E-1,0E0,0E0,0E0,0E0,0E0,0E0,0E0],"parents":[2147483647,0,0,1,1,2,2,3,3,4,4,5,5,6,6,8,8,9,9,10,10,11,11,18,18,19,19,22,22,23,23],"right_children":[2,4,6,8,10,12,14,-1,16,18,20,22,-1,-1,-1,-1,-1,-1,24,26,-1,-1,28,30,-1,-1,-1,-1,-1,-1,-1],"split_conditions":[-9.536743E-7,5E-1,-9.536743E-7,-9.536743E-7,-9.536743E-7,6.282468E-1,8.75E-1,1.7484237E-1,1.7500001E-1,7.361111E-1,-9.536743E-7,-9.536743E-7,1.7530183E-1,-9.706616E-2,3.5909895E-2,1.0447796E-1,-6.831681E-2,-8.853382E-2,-9.536743E-7,-9.536743E-7,-5.9298497E-2,9.091982E-2,3.1911767E-1,2.5320512E-1,1.308318E-1,-1.4249155E-2,1.7479306E-1,-6.665531E-3,-8.107436E-2,3.346917E-2,-6.4226374E-2],"split_indices":[3905,14643,11559,11271,4031,14439,14658,0,14549,14456,2981,10728,0,0,0,0,0,0,1714,8845,0,0,14663,14524,0,0,0,0,0,0,0],"split_type":[0,0,0,0,0,0,0,0,0,0,0,0,0,0,0,0,0,0,0,0,0,0,0,0,0,0,0,0,0,0,0],"sum_hessian":[3.9794617E1,2.034583E1,1.9448786E1,7.0714083E0,1.3274424E1,6.0021644E0,1.3446622E1,3.6199896E0,3.4514184E0,8.193582E0,5.0808425E0,4.955337E0,1.0468276E0,1.2330037E1,1.1165847E0,1.8550605E0,1.596358E0,4.441776E0,3.7518053E0,3.9026434E0,1.1781992E0,1.0238197E0,3.9315171E0,2.3724067E0,1.3793987E0,1.0543125E0,2.848331E0,1.0124385E0,2.9190786E0,1.0122228E0,1.360184E0],"tree_param":{"num_deleted":"0","num_feature":"14830","num_nodes":"31","size_leaf_vector":"0"}},{"base_weights":[4.9078874E-2,8.763777E-1,-2.5290644E-1,1.5297721E-1,1.5328646E0,-7.33476E-1,3.6433738E-1,-5.920095E-1,8.6525494E-1,-2.1282773E-1,1.9645327E0,-9.313938E-1,6.433806E-1,9.672775E-1,-4.6326187E-1,-6.921123E-1,-1.6336E-1,1.2203982E0,7.0809275E-2,-9.911731E-1,-4.0663004E-2,2.0093651E-2,1.5198721E0,-8.6748934E-1,7.6878375E-1,-7.1786183E-1,1.1182053E0,1.9376385E0,3.5134873E-1],"categories":[],"categories_nodes":[],"categories_segments":[],"categories_sizes":[],"default_left":[1,1,1,0,1,1,1,1,1,0,0,1,0,1,1,0,0,0,0,0,0,1,1,0,0,0,0,0,0],"id":9,"left_children":[1,3,5,7,9,11,13,15,17,-1,-1,19,-1,21,23,-1,-1,-1,-1,-1,-1,25,27,-1,-1,-1,-1,-1,-1],"loss_changes":[1.01384735E1,4.9128094E0,9.12318E0,3.837951E0,4.6163797E0,5.2639704E0,7.302941E0,4.38596E-2,9.3219614E-1,0E0,0E0,7.7838135E-1,0E0,4.2986784E0,3.8872247E0,0E0,0E0,0E0,0E0,0E0,0E0,4.093521E0,1.8627119E0,0E0,0E0,0E0,0E0,0E0,0E0],"parents":[2147483647,0,0,1,1,2,2,3,3,4,4,5,5,6,6,7,7,8,8,11,11,13,13,14,14,21,21,22,22],"right_children":[2,4,6,8,10,12,14,16,18,-1,-1,20,-1,22,24,-1,-1,-1,-1,-1,-1,26,28,-1,-1,-1,-1,-1,-1],"split_conditions":[-9.536743E-7,-9.536743E-7,-9.536743E-7,7.474227E-1,-9.536743E-7,-9.536743E-7,-9.536743E-7,-9.536743E-7,-9.536743E-7,-2.1282773E-2,1.9645327E-1,4.72973E-1,6.433806E-2,-9.536743E-7,-9.536743E-7,-6.921124E-2,-1.6336E-2,1.2203982E-1,7.0809275E-3,-9.911731E-2,-4.0663006E-3,-9.536743E-7,-9.536743E-7,-8.6748935E-2,7.687838E-2,-7.178619E-2,1.11820534E-1,1.9376385E-1,3.5134874E-2],"split_indices":[6807,12926,2348,14557,7424,2211,11595,12725,11066,0,0,14540,0,7346,8642,0,0,0,0,0,0,5124,9756,0,0,0,0,0,0],"split_type":[0,0,0,0,0,0,0,0,0,0,0,0,0,0,0,0,0,0,0,0,0,0,0,0,0,0,0,0,0],"sum_hessian":[3.8693985E1,9.838643E0,2.8855343E1,5.26739E0,4.5712533E0,1.6117996E1,1.2737348E1,2.6571105E0,2.610279E0,1.0067716E0,3.5644817E0,1.4375157E1,1.7428375E0,7.271202E0,5.4661455E0,1.6557965E0,1.0013139E0,1.433358E0,1.1769212E0,1.3365406E1,1.0097514E0,3.0609288E0,4.2102733E0,4.3385773E0,1.1275686E0,2.0377748E0,1.0231539E0,2.616601E0,1.5936723E0],"tree_param":{"num_deleted":"0","num_feature":"14830","num_nodes":"29","size_leaf_vector":"0"}},{"base_weights":[5.368623E-2,5.992621E-1,-3.590865E-1,1.1747994E-1,1.2592852E0,2.0400545E-1,-8.108496E-1,1.1013191E0,-4.0528986E-1,1.5693469E0,-2.168599E-1,-2.230248E-1,8.340251E-1,-9.5399714E-1,3.592813E-1,3.2164228E-1,1.345222E0,-8.1656086E-1,8.039228E-1,2.8854066E-1,1.8161134E0,-5.945909E-1,6.059824E-1,1.1889546E0,-1.5487769E-1,-8.840887E-1,-2.2814083E-1,-8.4363574E-1,2.5794616E-1],"categories":[],"categories_nodes":[],"categories_segments":[],"categories_sizes":[],"default_left":[1,1,1,1,1,1,1,1,0,0,0,1,0,0,0,0,0,1,0,0,0,1,0,0,0,0,0,0,0],"id":10,"left_children":[1,3,5,7,9,11,13,15,17,19,-1,21,23,-1,-1,-1,-1,25,-1,-1,-1,27,-1,-1,-1,-1,-1,-1,-1],"loss_changes":[8.905075E0,5.25621E0,5.912657E0,6.0662436E0,3.5753498E0,3.1067202E0,2.4761515E0,3.3947515E-1,4.568507E0,1.3604984E0,0E0,2.596451E0,1.797538E0,0E0,0E0,0E0,0E0,5.1255703E-2,0E0,0E0,0E0,1.3890821E0,0E0,0E0,0E0,0E0,0E0,0E0,0E0],"parents":[2147483647,0,0,1,1,2,2,3,3,4,4,5,5,6,6,7,7,8,8,9,9,11,11,12,12,17,17,21,21],"right_children":[2,4,6,8,10,12,14,16,18,20,-1,22,24,-1,-1,-1,-1,26,-1,-1,-1,28,-1,-1,-1,-1,-1,-1,-1],"split_conditions":[-9.536743E-7,-9.536743E-7,-9.536743E-7,5.618557E-1,8.064516E-2,-9.536743E-7,-9.536743E-7,-9.536743E-7,5E-1,6.217532E-1,-2.1685991E-2,-9.536743E-7,2.5320512E-1,-9.5399715E-2,3.592813E-2,3.2164227E-2,1.345222E-1,-9.536743E-7,8.039228E-2,2.8854067E-2,1.8161134E-1,4.3554008E-1,6.0598243E-2,1.1889546E-1,-1.548777E-2,-8.840887E-2,-2.2814084E-2,-8.436357E-2,2.5794616E-2],"split_indices":[11559,11918,3905,14557,14454,11080,8595,10099,14510,14439,0,8642,14524,0,0,0,0,11611,0,0,0,14438,0,0,0,0,0,0,0],"split_type":[0,0,0,0,0,0,0,0,0,0,0,0,0,0,0,0,0,0,0,0,0,0,0,0,0,0,0,0,0],"sum_hessian":[3.7587616E1,1.5994862E1,2.1592754E1,9.926807E0,6.0680547E0,9.8561535E0,1.1736601E1,3.0604398E0,6.8663673E0,4.9625425E0,1.1055124E0,6.259464E0,3.5966904E0,1.0621886E1,1.114715E0,1.2817718E0,1.7786679E0,5.366021E0,1.500346E0,1.1520865E0,3.810456E0,4.5174723E0,1.741991E0,2.4978752E0,1.0988152E0,4.3628554E0,1.0031657E0,3.504246E0,1.0132264E0],"tree_param":{"num_deleted":"0","num_feature":"14830","num_nodes":"29","size_leaf_vector":"0"}},{"base_weights":[5.680835E-2,3.575503E-1,-6.0604924E-1,7.912237E-1,-1.2909967E-1,-8.6819017E-1,6.787341E-1,1.7854938E-1,1.3216275E0,2.5411865E-1,-8.44255E-1,-8.923527E-2,-9.411868E-1,9.665503E-1,-3.8173148E-1,1.7112944E0,-2.7930483E-1,-2.4845442E-1,9.4347113E-1,1.784852E-1,1.234261E0,4.8467845E-1,-8.0351996E-1,1.9865266E0,4.027849E-1,-6.9720155E-1,9.094092E-1,-1.1573094E-1,1.3268359E0,-9.541025E-2,-8.215201E-1],"categories":[],"categories_nodes":[],"categories_segments":[],"categories_sizes":[],"default_left":[1,1,1,1,1,0,0,1,1,1,0,0,0,1,0,1,0,1,1,0,0,0,0,0,0,1,0,0,0,0,0],"id":11,"left_children":[1,3,5,7,9,11,-1,13,15,17,-1,-1,-1,19,21,23,-1,25,27,-1,-1,-1,-1,-1,-1,29,-1,-1,-1,-1,-1],"loss_changes":[7.714056E0,5.694945E0,4.6675096E0,4.363285E0,3.872461E0,5.1281404E-1,0E0,3.7788727E0,5.1128273E0,3.5114808E0,0E0,0E0,0E0,5.165508E-1,2.3010097E0,1.4023533E0,0E0,3.887798E0,1.8577192E0,0E0,0E0,0E0,0E0,0E0,0E0,3.016069E-1,0E0,0E0,0E0,0E0,0E0],"parents":[2147483647,0,0,1,1,2,2,3,3,4,4,5,5,7,7,8,8,9,9,13,13,14,14,15,15,17,17,18,18,25,25],"right_children":[2,4,6,8,10,12,-1,14,16,18,-1,-1,-1,20,22,24,-1,26,28,-1,-1,-1,-1,-1,-1,30,-1,-1,-1,-1,-1],"split_conditions":[3.425926E-1,-9.536743E-7,-9.536743E-7,-9.536743E-7,-9.536743E-7,4.818653E-1,6.787341E-2,7.850877E-1,-9.536743E-7,-9.536743E-7,-8.44255E-2,-8.923527E-3,-9.411868E-2,-9.536743E-7,3.4965035E-3,-9.536743E-7,-2.7930483E-2,-9.536743E-7,-9.536743E-7,1.784852E-2,1.234261E-1,4.8467845E-2,-8.0352E-2,1.9865267E-1,4.027849E-2,2.283654E-2,9.094092E-2,-1.1573094E-2,1.3268359E-1,-9.541025E-3,-8.215201E-2],"split_indices":[14785,11280,1483,12672,2981,14676,0,14533,9119,10700,0,0,0,12936,14495,11099,0,13959,9535,0,0,0,0,0,0,14461,0,0,0,0,0],"split_type":[0,0,0,0,0,0,0,0,0,0,0,0,0,0,0,0,0,0,0,0,0,0,0,0,0,0,0,0,0,0,0],"sum_hessian":[3.660922E1,2.5500227E1,1.1108993E1,1.3153106E1,1.2347121E1,9.495773E0,1.6132193E0,6.723434E0,6.4296713E0,8.459003E0,3.8881183E0,1.0040376E0,8.491735E0,2.492611E0,4.230823E0,5.1155987E0,1.3140728E0,5.262185E0,3.1968179E0,1.0546697E0,1.4379412E0,1.3364575E0,2.8943653E0,3.7984684E0,1.3171302E0,4.079118E0,1.1830672E0,1.0350863E0,2.1617317E0,1.0010037E0,3.0781143E0],"tree_param":{"num_deleted":"0","num_feature":"14830","num_nodes":"31","size_leaf_vector":"0"}},{"base_weights":[5.8995735E-2,7.4028504E-1,-2.1530847E-1,1.3408434E-1,1.249703E0,-6.873866E-1,3.3192155E-1,-5.575402E-1,7.348791E-1,1.3856044E-1,1.4592639E0,-8.9800113E-1,5.341748E-1,8.901046E-1,-3.045661E-1,1.0627935E0,-1.7906228E-3,-9.659431E-1,-4.3930527E-2,1.2391492E0,-2.957214E-1,-8.5592604E-1,8.017064E-1,8.7160945E-2,1.4972796E0],"categories":[],"categories_nodes":[],"categories_segments":[],"categories_sizes":[],"default_left":[1,1,1,0,1,1,1,0,1,0,0,1,0,1,1,0,0,0,0,1,0,0,0,0,0],"id":12,"left_children":[1,3,5,7,9,11,13,-1,15,-1,-1,17,-1,19,21,-1,-1,-1,-1,23,-1,-1,-1,-1,-1],"loss_changes":[6.9901457E0,3.1420856E0,7.160331E0,2.9087017E0,1.1258564E0,4.2698803E0,4.9259853E0,0E0,8.835509E-1,0E0,0E0,7.083435E-1,0E0,3.3612218E0,4.8746057E0,0E0,0E0,0E0,0E0,1.5890503E0,0E0,0E0,0E0,0E0,0E0],"parents":[2147483647,0,0,1,1,2,2,3,3,4,4,5,5,6,6,8,8,11,11,13,13,14,14,19,19],"right_children":[2,4,6,8,10,12,14,-1,16,-1,-1,18,-1,20,22,-1,-1,-1,-1,24,-1,-1,-1,-1,-1],"split_conditions":[-9.536743E-7,-9.536743E-7,-9.536743E-7,7.474227E-1,-9.536743E-7,-9.536743E-7,-9.536743E-7,-5.5754017E-2,-9.536743E-7,1.3856045E-2,1.459264E-1,4.4594595E-1,5.341748E-2,-9.536743E-7,-9.536743E-7,1.0627935E-1,-1.7906229E-4,-9.659431E-2,-4.393053E-3,-9.536743E-7,-2.9572142E-2,-8.5592605E-2,8.017064E-2,8.716094E-3,1.4972797E-1],"split_indices":[6807,12926,2348,14557,7290,2211,8971,0,11066,0,0,14540,0,12823,9887,0,0,0,0,11512,0,0,0,0,0],"split_type":[0,0,0,0,0,0,0,0,0,0,0,0,0,0,0,0,0,0,0,0,0,0,0,0,0],"sum_hessian":[3.5551464E1,9.717453E0,2.583401E1,5.0140324E0,4.7034206E0,1.3731853E1,1.2102157E1,2.3642938E0,2.6497386E0,1.0098966E0,3.6935241E0,1.193838E1,1.793472E0,6.235406E0,5.866751E0,1.527224E0,1.1225146E0,1.0937321E1,1.0010593E0,4.7826724E0,1.4527334E0,4.0663853E0,1.8003662E0,1.120363E0,3.6623094E0],"tree_param":{"num_deleted":"0","num_feature":"14830","num_nodes":"25","size_leaf_vector":"0"}},{"base_weights":[6.024927E-2,3.3040795E-1,-5.725355E-1,-1.8861957E-1,6.6543317E-1,-8.476726E-1,6.254584E-1,5.910379E-1,-7.609918E-1,-3.0514795E-1,8.7534E-1,-1.1030195E-1,-9.232637E-1,-3.0060232E-1,1.0690613E0,-8.798172E-1,-4.939983E-2,-6.5039915E-1,2.8564557E-1,1.0932137E0,-2.3914628E-1,2.762027E-1,1.2744663E0,1.2629105E0,-2.3410475E-1,1.3969752E0,4.8707772E-2,1.5433785E0,3.1944442E-1,1.6707172E0,4.1231614E-1],"categories":[],"categories_nodes":[],"categories_segments":[],"categories_sizes":[],"default_left":[1,0,1,0,1,0,0,1,1,1,1,0,0,0,1,0,0,0,0,1,0,0,0,1,0,1,0,1,0,0,0],"id":13,"left_children":[1,3,5,7,9,11,-1,13,15,17,19,-1,-1,-1,21,-1,-1,-1,-1,23,-1,-1,-1,25,-1,27,-1,29,-1,-1,-1],"loss_changes":[6.272692E0,4.572313E0,4.1602716E0,5.2741404E0,3.4783416E0,4.2103767E-1,0E0,2.5119565E0,5.20628E-1,9.087057E-1,3.4709616E0,0E0,0E0,0E0,2.2861719E-1,0E0,0E0,0E0,0E0,2.8264484E0,0E0,0E0,0E0,1.5790806E0,0E0,9.3880844E-1,0E0,4.2442513E-1,0E0,0E0,0E0],"parents":[2147483647,0,0,1,1,2,2,3,3,4,4,5,5,7,7,8,8,9,9,10,10,14,14,19,19,23,23,25,25,27,27],"right_children":[2,4,6,8,10,12,-1,14,16,18,20,-1,-1,-1,22,-1,-1,-1,-1,24,-1,-1,-1,26,-1,28,-1,30,-1,-1,-1],"split_conditions":[3.425926E-1,6.555556E-1,-9.536743E-7,7.6599303E-3,-9.536743E-7,5.29661E-1,6.254584E-2,-9.536743E-7,8.917526E-1,7.3793106E-2,-9.536743E-7,-1.1030195E-2,-9.232637E-2,-3.0060232E-2,-9.536743E-7,-8.798172E-2,-4.939983E-3,-6.503992E-2,2.8564557E-2,-9.536743E-7,-2.3914628E-2,2.762027E-2,1.2744664E-1,1.9747667E-2,-2.3410475E-2,-9.536743E-7,4.8707775E-3,2.3056994E-1,3.1944443E-2,1.6707173E-1,4.1231614E-2],"split_indices":[14785,14487,2022,14396,2371,14709,0,8938,14557,14729,9288,0,0,0,11976,0,0,0,0,5530,0,0,0,14525,0,2481,0,14676,0,0,0],"split_type":[0,0,0,0,0,0,0,0,0,0,0,0,0,0,0,0,0,0,0,0,0,0,0,0,0,0,0,0,0,0,0],"sum_hessian":[3.4586075E1,2.4572878E1,1.0013198E1,9.810799E0,1.4762078E1,8.380837E0,1.6323602E0,4.139527E0,5.6712723E0,2.544219E0,1.221786E1,1.007932E0,7.3729057E0,1.5742637E0,2.565263E0,4.657184E0,1.0140879E0,1.5421298E0,1.0020891E0,1.0235905E1,1.9819548E0,1.0102798E0,1.5549834E0,9.11862E0,1.117285E0,8.076351E0,1.0422685E0,6.729667E0,1.3466843E0,5.6198444E0,1.1098226E0],"tree_param":{"num_deleted":"0","num_feature":"14830","num_nodes":"31","size_leaf_vector":"0"}},{"base_weights":[5.832267E-2,-1.981955E-1,7.0485437E-1,2.2390658E-1,-5.885524E-1,-2.1803236E-1,1.1684971E0,6.557674E-1,-1.6474152E-1,5.464733E-1,-7.4599403E-1,-7.369763E-1,7.1374685E-1,2.029277E-1,1.5822636E0,-2.9412135E-1,9.6640825E-1,8.4106034E-1,-4.5610753E-1,-8.749597E-1,3.0119565E-1,-4.038675E-1,7.6079726E-1,1.2171098E0,1.8596514E-1,3.537071E-1,-7.438479E-1,-9.3962973E-1,-1.0907637E-1,-8.343835E-1,-1.8432811E-1],"categories":[],"categories_nodes":[],"categories_segments":[],"categories_sizes":[],"default_left":[0,1,0,0,1,1,1,0,0,0,0,0,0,1,0,0,1,0,0,1,0,0,0,0,0,0,1,0,0,0,0],"id":14,"left_children":[1,3,5,7,9,11,13,15,17,-1,19,-1,-1,21,-1,-1,23,-1,25,27,-1,-1,-1,-1,-1,-1,29,-1,-1,-1,-1],"loss_changes":[5.8920674E0,4.3520174E0,4.5644517E0,2.295085E0,2.8348422E0,2.562069E0,2.4201155E0,2.1647112E0,2.6277137E0,0E0,1.93151E0,0E0,0E0,1.3923019E0,0E0,0E0,7.589345E-1,0E0,1.7977332E0,4.548416E-1,0E0,0E0,0E0,0E0,0E0,0E0,1.086812E-1,0E0,0E0,0E0,0E0],"parents":[2147483647,0,0,1,1,2,2,3,3,4,4,5,5,6,6,7,7,8,8,10,10,13,13,16,16,18,18,19,19,26,26],"right_children":[2,4,6,8,10,12,14,16,18,-1,20,-1,-1,22,-1,-1,24,-1,26,28,-1,-1,-1,-1,-1,-1,30,-1,-1,-1,-1],"split_conditions":[4.75E-1,-9.536743E-7,5.4827586E-2,2.1474358E-1,-9.536743E-7,-9.536743E-7,-9.536743E-7,4.7979796E-1,6.506849E-2,5.4647334E-2,9.2857146E-1,-7.3697634E-2,7.1374685E-2,-9.536743E-7,1.5822636E-1,-2.9412135E-2,-9.536743E-7,8.4106036E-2,5.183993E-3,-9.536743E-7,3.0119566E-2,-4.038675E-2,7.6079726E-2,1.2171098E-1,1.8596513E-2,3.537071E-2,6.2048197E-1,-9.3962975E-2,-1.0907638E-2,-8.343835E-2,-1.843281E-2],"split_indices":[14549,3905,14729,14524,10736,8852,9442,14384,14714,0,14490,0,0,12936,0,0,8971,0,14396,2369,0,0,0,0,0,0,14752,0,0,0,0],"split_type":[0,0,0,0,0,0,0,0,0,0,0,0,0,0,0,0,0,0,0,0,0,0,0,0,0,0,0,0,0,0,0],"sum_hessian":[3.3684765E1,2.4612822E1,9.071945E0,1.2030436E1,1.2582386E1,3.2107153E0,5.8612294E0,5.3728685E0,6.657567E0,1.2317215E0,1.1350665E1,2.1964774E0,1.014238E0,2.2053185E0,3.655911E0,1.3371776E0,4.035691E0,1.0716381E0,5.585929E0,1.0252497E1,1.0981679E0,1.188567E0,1.0167514E0,2.6310184E0,1.4046725E0,1.4043308E0,4.181598E0,9.245005E0,1.0074918E0,3.1763804E0,1.0052177E0],"tree_param":{"num_deleted":"0","num_feature":"14830","num_nodes":"31","size_leaf_vector":"0"}},{"base_weights":[6.1213017E-2,4.8759735E-1,-3.0029857E-1,9.345245E-2,9.6978027E-1,1.736491E-1,-7.468074E-1,8.328069E-1,-3.4669414E-1,8.159851E-2,1.2633961E0,-3.737546E-1,5.410717E-1,-9.1408014E-1,3.1084245E-1,1.571659E-1,1.0996995E0,-8.4663874E-1,5.455452E-1,3.5767606E-1,1.4217153E0,-7.6746535E-1,4.9221206E-1,-3.4182805E-1,8.378311E-1,9.787634E-1,-1.6446821E-1,1.1451168E0,3.0908076E-2],"categories":[],"categories_nodes":[],"categories_segments":[],"categories_sizes":[],"default_left":[1,1,1,1,1,1,0,1,1,0,1,1,0,0,0,0,0,0,1,0,0,0,0,0,1,0,0,0,0],"id":15,"left_children":[1,3,5,7,9,11,13,15,17,-1,19,21,23,-1,-1,-1,-1,-1,25,-1,-1,-1,-1,-1,27,-1,-1,-1,-1],"loss_changes":[5.3367834E0,2.9180706E0,4.11691E0,3.4835515E0,1.7259693E0,2.2036896E0,2.0338569E0,5.4078245E-1,3.5219107E0,0E0,2.3743153E-1,1.9420383E0,1.9535607E0,0E0,0E0,0E0,0E0,0E0,1.1057742E0,0E0,0E0,0E0,0E0,0E0,1.2172999E0,0E0,0E0,0E0,0E0],"parents":[2147483647,0,0,1,1,2,2,3,3,4,4,5,5,6,6,7,7,8,8,10,10,11,11,12,12,18,18,24,24],"right_children":[2,4,6,8,10,12,14,16,18,-1,20,22,24,-1,-1,-1,-1,-1,26,-1,-1,-1,-1,-1,28,-1,-1,-1,-1],"split_conditions":[-9.536743E-7,-9.536743E-7,-9.536743E-7,5.618557E-1,-9.536743E-7,-9.536743E-7,8.75E-1,-9.536743E-7,-9.536743E-7,8.159852E-3,-9.536743E-7,4.2990655E-2,9.873834E-3,-9.1408014E-2,3.1084245E-2,1.571659E-2,1.0996995E-1,-8.4663875E-2,-9.536743E-7,3.5767607E-2,1.4217153E-1,-7.674654E-2,4.9221206E-2,-3.4182806E-2,-9.536743E-7,9.787634E-2,-1.6446821E-2,1.1451168E-1,3.0908077E-3],"split_indices":[11559,11918,3905,14557,8832,8851,14658,10212,825,0,10254,14711,14525,0,0,0,0,0,6435,0,0,0,0,0,8971,0,0,0,0],"split_type":[0,0,0,0,0,0,0,0,0,0,0,0,0,0,0,0,0,0,0,0,0,0,0,0,0,0,0,0,0],"sum_hessian":[3.2672386E1,1.4831096E1,1.784129E1,8.817404E0,6.013692E0,8.9511595E0,8.89013E0,2.9574285E0,5.8599753E0,1.8115876E0,4.2021046E0,3.5881417E0,5.3630176E0,7.7933207E0,1.0968093E0,1.2873538E0,1.6700746E0,3.7883651E0,2.0716102E0,1.1101742E0,3.0919304E0,2.5448678E0,1.0432739E0,1.3109356E0,4.052082E0,1.0515115E0,1.0200987E0,2.6310372E0,1.421045E0],"tree_param":{"num_deleted":"0","num_feature":"14830","num_nodes":"29","size_leaf_vector":"0"}},{"base_weights":[6.447704E-2,4.6479622E-1,-2.8406906E-1,-6.0002214E-1,6.0046494E-1,1.6321185E-1,-7.2683877E-1,-4.338152E-1,7.566698E-1,-3.5589814E-1,4.9833483E-1,-9.051087E-1,3.2725975E-1,8.965902E-1,-3.1997856E-1,-7.4985254E-1,4.726729E-1,8.44702E-1,-2.0621954E-1,1.072879E0,8.709222E-2,1.1325289E0,2.9282698E-1,1.1914519E0,6.082339E-2,-5.597635E-1,7.1913415E-1,4.9027053E-1,1.3760304E0,-9.89246E-2,9.185856E-1],"categories":[],"categories_nodes":[],"categories_segments":[],"categories_sizes":[],"default_left":[1,0,1,0,0,1,1,0,1,0,0,0,0,1,0,0,0,0,0,1,1,0,0,1,0,0,0,1,0,0,0],"id":16,"left_children":[1,3,5,-1,7,9,11,-1,13,15,17,-1,-1,19,-1,-1,-1,21,-1,23,25,-1,-1,27,-1,-1,-1,29,-1,-1,-1],"loss_changes":[4.6896453E0,2.611345E0,3.6995997E0,0E0,2.6419663E0,1.8842592E0,2.0381913E0,0E0,2.2161121E0,1.8013186E0,1.7309213E0,0E0,0E0,1.561449E0,0E0,0E0,0E0,3.7885952E-1,0E0,1.059679E0,1.695364E0,0E0,0E0,4.1138268E-1,0E0,0E0,0E0,9.2418987E-1,0E0,0E0,0E0],"parents":[2147483647,0,0,1,1,2,2,4,4,5,5,6,6,8,8,9,9,10,10,13,13,17,17,19,19,20,20,23,23,27,27],"right_children":[2,4,6,-1,8,10,12,-1,14,16,18,-1,-1,20,-1,-1,-1,22,-1,24,26,-1,-1,28,-1,-1,-1,30,-1,-1,-1],"split_conditions":[-9.536743E-7,3.678279E-1,-9.536743E-7,-6.0002215E-2,5E-1,-9.536743E-7,-9.536743E-7,-4.3381523E-2,6.1298076E-2,2.3991355E-1,2.4038461E-1,-9.051087E-2,3.2725975E-2,-9.536743E-7,-3.1997856E-2,-7.498526E-2,4.726729E-2,1.4121038E-1,-2.0621954E-2,-9.536743E-7,-9.536743E-7,1.1325289E-1,2.9282698E-2,-9.536743E-7,6.0823387E-3,-5.597635E-2,7.191341E-2,-9.536743E-7,1.3760304E-1,-9.89246E-3,9.185856E-2],"split_indices":[11559,14596,3905,0,14460,8851,8595,0,14461,14431,14524,0,0,12060,0,0,0,14431,0,11081,1471,0,0,9137,0,0,0,9424,0,0,0],"split_type":[0,0,0,0,0,0,0,0,0,0,0,0,0,0,0,0,0,0,0,0,0,0,0,0,0,0,0,0,0,0,0],"sum_hessian":[3.1664095E1,1.4582257E1,1.7081837E1,1.2611573E0,1.33211E1,8.811721E0,8.270116E0,1.5146855E0,1.1806415E1,3.4325938E0,5.3791265E0,7.1946883E0,1.0754279E0,1.0596538E1,1.2098776E0,2.390843E0,1.0417507E0,3.4728942E0,1.9062325E0,8.434374E0,2.1621635E0,1.5909812E0,1.8819131E0,7.3911624E0,1.0432113E0,1.1250756E0,1.037088E0,2.30209E0,5.0890727E0,1.2927735E0,1.0093163E0],"tree_param":{"num_deleted":"0","num_feature":"14830","num_nodes":"31","size_leaf_vector":"0"}},{"base_weights":[6.277211E-2,2.4416E-1,-6.5663475E-1,6.041336E-1,-1.5003209E-1,-8.528404E-1,2.1987106E-1,-3.1522393E-1,8.0384064E-1,-4.1461375E-1,6.18989E-1,-6.2231874E-1,1.7828135E-1,9.577025E-1,-3.2750726E-1,-6.162214E-1,5.029804E-1,9.213381E-2,9.1481984E-1,3.4221478E-2,1.1322315E0,-8.36156E-1,3.6590892E-1,1.5256058E-1,1.3394431E0,-1.9130242E-1,-9.048213E-1,3.6129484E-1,1.4857314E0],"categories":[],"categories_nodes":[],"categories_segments":[],"categories_sizes":[],"default_left":[1,1,1,1,1,0,0,1,1,1,1,0,0,1,0,1,0,0,0,0,1,0,0,0,0,0,0,0,0],"id":17,"left_children":[1,3,5,7,9,-1,-1,11,13,15,17,-1,-1,19,-1,21,-1,-1,-1,-1,23,25,-1,-1,27,-1,-1,-1,-1],"loss_changes":[4.309677E0,3.7975783E0,1.335278E0,2.796924E0,2.95674E0,0E0,0E0,5.94492E-1,2.3438334E0,2.247251E0,5.0768185E-1,0E0,0E0,1.6570463E0,0E0,2.257609E0,0E0,0E0,0E0,0E0,1.5856857E0,1.6725779E-1,0E0,0E0,4.8630524E-1,0E0,0E0,0E0,0E0],"parents":[2147483647,0,0,1,1,2,2,3,3,4,4,7,7,8,8,9,9,10,10,13,13,15,15,20,20,21,21,24,24],"right_children":[2,4,6,8,10,-1,-1,12,14,16,18,-1,-1,20,-1,22,-1,-1,-1,-1,24,26,-1,-1,28,-1,-1,-1,-1],"split_conditions":[-9.536743E-7,-9.536743E-7,-9.536743E-7,-9.536743E-7,-9.536743E-7,-8.528405E-2,2.1987107E-2,-9.536743E-7,-9.536743E-7,-9.536743E-7,-9.536743E-7,-6.2231876E-2,1.7828135E-2,-9.536743E-7,-3.2750726E-2,-9.536743E-7,5.0298043E-2,9.213381E-3,9.148198E-2,3.4221478E-3,-9.536743E-7,2.8382355E-1,3.6590893E-2,1.52560575E-2,1.0148108E-2,-1.9130243E-2,-9.048213E-2,3.6129486E-2,1.4857315E-1],"split_indices":[3024,11280,4845,11887,13233,0,0,8918,12313,10975,9014,0,0,9195,0,12937,0,0,0,0,8781,14663,0,0,14525,0,0,0,0],"split_type":[0,0,0,0,0,0,0,0,0,0,0,0,0,0,0,0,0,0,0,0,0,0,0,0,0,0,0,0,0],"sum_hessian":[3.0797832E1,2.5123837E1,5.673997E0,1.285351E1,1.2270327E1,4.658249E0,1.0157483E0,2.1905968E0,1.0662912E1,9.472253E0,2.7980733E0,1.18943E0,1.0011669E0,9.521488E0,1.1414251E0,8.035241E0,1.4370115E0,1.4777461E0,1.3203272E0,1.7035604E0,7.8179274E0,6.6865177E0,1.3487235E0,1.6680143E0,6.1499133E0,1.007821E0,5.678697E0,1.2515098E0,4.898403E0],"tree_param":{"num_deleted":"0","num_feature":"14830","num_nodes":"29","size_leaf_vector":"0"}},{"base_weights":[6.1393235E-2,2.7733216E-1,-5.0684303E-1,4.5556855E-1,-3.7535602E-1,-7.98615E-1,5.440469E-1,2.0732798E-1,1.1262181E0,5.954186E-1,-8.0488676E-1,-1.5614255E-1,-8.751799E-1,-1.7979345E-1,7.605337E-1,1.3065281E0,2.5857452E-1,-3.8537946E-1,6.9283915E-1,5.4092266E-2,9.7845304E-1,-5.6948483E-1,3.9648387E-1,6.367043E-2,1.2303848E0,-7.779666E-1,3.5199362E-1,-1.8829165E-1,-8.563485E-1],"categories":[],"categories_nodes":[],"categories_segments":[],"categories_sizes":[],"default_left":[1,1,1,1,1,0,0,1,0,0,0,0,0,1,1,0,0,1,0,0,0,0,0,0,0,0,0,0,0],"id":18,"left_children":[1,3,5,7,9,11,-1,13,15,-1,-1,-1,-1,17,19,-1,-1,21,-1,-1,23,25,-1,-1,-1,27,-1,-1,-1],"loss_changes":[3.9392774E0,2.8559155E0,3.1568613E0,2.8598595E0,2.772174E0,2.2511864E-1,0E0,3.3034234E0,4.121604E-1,0E0,0E0,0E0,0E0,1.9727478E0,9.136622E-1,0E0,0E0,1.4259571E0,0E0,0E0,1.0140486E0,1.6491692E0,0E0,0E0,0E0,1.2299323E-1,0E0,0E0,0E0],"parents":[2147483647,0,0,1,1,2,2,3,3,4,4,5,5,7,7,8,8,13,13,14,14,17,17,20,20,21,21,25,25],"right_children":[2,4,6,8,10,12,-1,14,16,-1,-1,-1,-1,18,20,-1,-1,22,-1,-1,24,26,-1,-1,-1,28,-1,-1,-1],"split_conditions":[3.425926E-1,7.876712E-2,-9.536743E-7,-9.536743E-7,1.1023055E-1,5.5508476E-1,5.4404687E-2,-9.536743E-7,6.6433564E-2,5.954186E-2,-8.0488674E-2,-1.5614255E-2,-8.751799E-2,-9.536743E-7,-9.536743E-7,1.3065282E-1,2.5857452E-2,-9.536743E-7,6.928392E-2,5.4092268E-3,1.8997668E-1,8.75E-1,3.9648388E-2,6.3670427E-3,1.23038486E-1,3.6590436E-1,3.5199363E-2,-1.8829165E-2,-8.563485E-2],"split_indices":[14785,14714,2022,826,14431,14709,0,12926,14495,0,0,0,0,10046,12176,0,0,9709,0,0,14495,14456,0,0,0,14720,0,0,0],"split_type":[0,0,0,0,0,0,0,0,0,0,0,0,0,0,0,0,0,0,0,0,0,0,0,0,0,0,0,0,0],"sum_hessian":[2.9958267E1,2.2079605E1,7.878662E0,1.7580677E1,4.498928E0,6.354453E0,1.5242093E0,1.3786687E1,3.79399E0,1.2615391E0,3.237389E0,1.0002755E0,5.3541775E0,8.507982E0,5.278705E0,2.7223978E0,1.0715921E0,7.337654E0,1.1703275E0,1.5387319E0,3.739973E0,6.159021E0,1.1786335E0,1.0780877E0,2.6618853E0,5.1496654E0,1.0093557E0,1.003379E0,4.146286E0],"tree_param":{"num_deleted":"0","num_feature":"14830","num_nodes":"29","size_leaf_vector":"0"}},{"base_weights":[6.441759E-2,-2.3374663E-1,4.682612E-1,3.3916464E-1,-5.8235747E-1,6.3317484E-1,-5.9524083E-1,-2.4843933E-1,6.1221737E-1,-8.473681E-1,4.264029E-1,8.1707996E-1,-4.0787366E-1,1.8442355E-1,-5.535614E-1,1.7331397E-2,7.850656E-1,-1.2969549E-1,-9.181982E-1,4.9346365E-2,5.9969985E-1,-2.4456663E-1,9.828117E-1,9.6260704E-2,1.0330572E0,1.1608552E0,-1.09228715E-1,2.8164908E-1,1.2740107E0],"categories":[],"categories_nodes":[],"categories_segments":[],"categories_sizes":[],"default_left":[1,1,1,0,1,1,0,0,0,0,1,0,0,0,0,0,1,0,0,0,0,0,1,0,0,1,0,0,0],"id":19,"left_children":[1,3,5,7,9,11,-1,13,15,17,19,21,-1,-1,-1,-1,23,-1,-1,-1,-1,-1,25,-1,-1,27,-1,-1,-1],"loss_changes":[3.7214894E0,3.7772717E0,2.6698475E0,1.3414E0,3.4386263E0,2.5930343E0,0E0,5.066402E-1,5.3644776E-1,3.6133528E-1,1.7036664E-1,2.0639143E0,0E0,0E0,0E0,0E0,6.047487E-1,0E0,0E0,0E0,0E0,0E0,1.9085474E0,0E0,0E0,4.336195E-1,0E0,0E0,0E0],"parents":[2147483647,0,0,1,1,2,2,3,3,4,4,5,5,7,7,8,8,9,9,10,10,11,11,16,16,22,22,25,25],"right_children":[2,4,6,8,10,12,-1,14,16,18,20,22,-1,-1,-1,-1,24,-1,-1,-1,-1,-1,26,-1,-1,28,-1,-1,-1],"split_conditions":[-9.536743E-7,-9.536743E-7,-9.536743E-7,3.0733335E-1,-9.536743E-7,-9.536743E-7,-5.9524085E-2,6.875E-1,6.5384614E-1,2.5E-1,4.705882E-1,4.8333335E-1,-4.0787365E-2,1.8442355E-2,-5.535614E-2,1.7331397E-3,-9.536743E-7,-1.2969549E-2,-9.181982E-2,4.9346364E-3,5.9969988E-2,-2.4456663E-2,-9.536743E-7,9.626071E-3,1.0330572E-1,-9.536743E-7,-1.09228715E-2,2.8164908E-2,1.2740107E-1],"split_indices":[12400,5145,2380,14646,4552,11793,0,14591,14778,14777,14663,14537,0,0,0,0,796,0,0,0,0,0,10271,0,0,12672,0,0,0],"split_type":[0,0,0,0,0,0,0,0,0,0,0,0,0,0,0,0,0,0,0,0,0,0,0,0,0,0,0,0,0],"sum_hessian":[2.8997368E1,1.69236E1,1.207377E1,6.4124303E0,1.05111685E1,1.0803188E1,1.2705814E0,2.063012E0,4.3494186E0,8.451003E0,2.0601656E0,9.36412E0,1.4390689E0,1.0165099E0,1.046502E0,1.2269468E0,3.1224716E0,1.0134531E0,7.4375496E0,1.0532573E0,1.0069084E0,1.2001978E0,8.163921E0,1.1940684E0,1.9284033E0,6.965301E0,1.1986202E0,1.1920714E0,5.7732296E0],"tree_param":{"num_deleted":"0","num_feature":"14830","num_nodes":"29","size_leaf_vector":"0"}},{"base_weights":[6.050558E-2,2.5734916E-1,-4.971513E-1,-1.0446966E-1,6.5991193E-1,-7.8404856E-1,5.5694234E-1,6.4969677E-1,-3.6192882E-1,-2.3689032E-1,8.945427E-1,-1.9950458E-1,-8.532006E-1,3.2154337E-2,8.858683E-1,5.357188E-1,-5.795584E-1,-5.273779E-1,1.71855E-1,1.0889401E0,7.809818E-2,-8.185143E-1,1.869079E-1,1.2250694E0,2.476376E-1],"categories":[],"categories_nodes":[],"categories_segments":[],"categories_sizes":[],"default_left":[1,1,1,1,1,0,0,1,0,0,1,0,0,0,0,0,0,0,0,1,0,0,0,0,0],"id":20,"left_children":[1,3,5,7,9,11,-1,13,15,17,19,-1,-1,-1,-1,-1,21,-1,-1,23,-1,-1,-1,-1,-1],"loss_changes":[3.3319714E0,3.3071635E0,2.8427224E0,2.6762002E0,2.455008E0,9.9369526E-2,0E0,4.9033833E-1,2.2668805E0,4.469924E-1,1.289258E0,0E0,0E0,0E0,0E0,0E0,1.7172394E0,0E0,0E0,4.8873997E-1,0E0,0E0,0E0,0E0,0E0],"parents":[2147483647,0,0,1,1,2,2,3,3,4,4,5,5,7,7,8,8,9,9,10,10,16,16,19,19],"right_children":[2,4,6,8,10,12,-1,14,16,18,20,-1,-1,-1,-1,-1,22,-1,-1,24,-1,-1,-1,-1,-1],"split_conditions":[-9.536743E-7,-9.536743E-7,-9.536743E-7,7.763158E-1,-9.536743E-7,5E-1,5.5694234E-2,5.416666E-1,1.1655012E-3,2.9066667E-1,-9.536743E-7,-1.9950459E-2,-8.532006E-2,3.2154338E-3,8.858683E-2,5.357188E-2,4.0705127E-1,-5.273779E-2,1.71855E-2,-9.536743E-7,7.809818E-3,-8.185143E-2,1.8690791E-2,1.2250694E-1,2.4763761E-2],"split_indices":[10612,9139,2413,14533,11512,14812,0,14456,14495,14646,12211,0,0,0,0,0,14524,0,0,9510,0,0,0,0,0],"split_type":[0,0,0,0,0,0,0,0,0,0,0,0,0,0,0,0,0,0,0,0,0,0,0,0,0],"sum_hessian":[2.8188263E1,2.1232176E1,6.9560866E0,1.15719385E1,9.660237E0,5.6692495E0,1.2868373E0,2.5573335E0,9.0146055E0,2.0012934E0,7.6589437E0,1.0107101E0,4.6585393E0,1.0217654E0,1.5355681E0,1.4738538E0,7.5407515E0,1.0002201E0,1.0010734E0,5.9164615E0,1.7424825E0,5.696795E0,1.8439567E0,4.699834E0,1.2166275E0],"tree_param":{"num_deleted":"0","num_feature":"14830","num_nodes":"25","size_leaf_vector":"0"}},{"base_weights":[6.0183577E-2,2.5633946E-1,-4.734805E-1,4.1635326E-1,-3.5763755E-1,-7.727586E-1,4.9469313E-1,1.9544454E-1,9.8454916E-1,5.0214773E-1,-7.677808E-1,-8.449809E-1,-1.907867E-1,-1.6159716E-1,6.7789245E-1,1.132785E0,2.2497061E-1,-3.5311934E-1,6.0123813E-1,1.0385143E0,1.7350934E-1,-5.3008926E-1,3.9150617E-1,6.12545E-1,-3.7738034E-1,-7.3195386E-1,2.5296044E-1,-8.407768E-1,-1.2279527E-1],"categories":[],"categories_nodes":[],"categories_segments":[],"categories_sizes":[],"default_left":[1,1,1,1,1,1,0,1,0,0,0,0,0,1,1,0,0,1,0,0,0,1,0,0,0,1,0,0,0],"id":21,"left_children":[1,3,5,7,9,11,-1,13,15,-1,-1,-1,-1,17,19,-1,-1,21,-1,-1,23,25,-1,-1,-1,27,-1,-1,-1],"loss_changes":[3.0954432E0,2.2536454E0,2.6966145E0,1.9986997E0,2.1370723E0,1.11638546E-1,0E0,2.4896183E0,2.67519E-1,0E0,0E0,0E0,0E0,1.4904131E0,9.237211E-1,0E0,0E0,1.2120048E0,0E0,0E0,1.133493E0,1.2258315E0,0E0,0E0,0E0,2.6076484E-1,0E0,0E0,0E0],"parents":[2147483647,0,0,1,1,2,2,3,3,4,4,5,5,7,7,8,8,13,13,14,14,17,17,20,20,21,21,25,25],"right_children":[2,4,6,8,10,12,-1,14,16,-1,-1,-1,-1,18,20,-1,-1,22,-1,-1,24,26,-1,-1,-1,28,-1,-1,-1],"split_conditions":[3.425926E-1,7.876712E-2,-9.536743E-7,-9.536743E-7,1.1023055E-1,7.239584E-1,4.9469315E-2,-9.536743E-7,6.6433564E-2,5.0214775E-2,-7.677808E-2,-8.449809E-2,-1.907867E-2,-9.536743E-7,4.1724138E-2,1.132785E-1,2.2497062E-2,-9.536743E-7,6.0123812E-2,1.0385143E-1,5.3608245E-1,-9.536743E-7,3.9150618E-2,6.12545E-2,-3.7738036E-2,8.103448E-2,2.5296045E-2,-8.407768E-2,-1.2279527E-2],"split_indices":[14785,14714,2022,826,14431,14675,0,12926,14495,0,0,0,0,10046,14729,0,0,9051,0,0,14557,2299,0,0,0,14729,0,0,0],"split_type":[0,0,0,0,0,0,0,0,0,0,0,0,0,0,0,0,0,0,0,0,0,0,0,0,0,0,0,0,0],"sum_hessian":[2.741071E1,2.042344E1,6.9872675E0,1.6456457E1,3.9669833E0,5.4915724E0,1.495695E0,1.2817225E1,3.639232E0,1.2087506E0,2.7582328E0,4.483274E0,1.0082983E0,7.7481537E0,5.0690722E0,2.6338823E0,1.0053496E0,6.622551E0,1.1256026E0,2.3382795E0,2.730793E0,5.5836396E0,1.0389113E0,1.4573932E0,1.2733998E0,4.4911146E0,1.092525E0,3.4878097E0,1.0033048E0],"tree_param":{"num_deleted":"0","num_feature":"14830","num_nodes":"29","size_leaf_vector":"0"}},{"base_weights":[6.2517285E-2,2.1647352E-1,-5.974885E-1,3.1816438E-1,-6.6058606E-1,1.4059E-1,-7.9683644E-1,6.261421E-3,6.426423E-1,-2.4735042E-1,7.077995E-1,7.91043E-1,-3.5353458E-1,-6.355604E-1,1.4907046E-1,1.7592448E-1,8.769163E-1,9.431786E-1,-2.1203142E-1,-8.0601346E-1,-1.0663229E-3,-3.5621893E-1,6.7478245E-1,5.8113996E-2,1.0730872E0,1.5098482E-1,-6.3140583E-1,1.1628467E0,2.9131275E-1],"categories":[],"categories_nodes":[],"categories_segments":[],"categories_sizes":[],"default_left":[1,1,0,1,0,0,0,1,1,1,1,1,0,1,1,0,0,1,0,0,0,0,0,0,1,0,0,0,0],"id":22,"left_children":[1,3,5,7,-1,-1,-1,9,11,13,15,17,-1,19,21,-1,-1,23,-1,-1,-1,25,-1,-1,27,-1,-1,-1,-1],"loss_changes":[2.925977E0,2.2660685E0,9.17104E-1,2.1547878E0,0E0,0E0,0E0,2.2898235E0,1.8237624E0,1.5522947E0,1.5290093E-1,1.6343827E0,0E0,5.372045E-1,1.7003119E0,0E0,0E0,8.971491E-1,0E0,0E0,0E0,5.7783663E-1,0E0,0E0,1.6787434E-1,0E0,0E0,0E0,0E0],"parents":[2147483647,0,0,1,1,2,2,3,3,7,7,8,8,9,9,10,10,11,11,13,13,14,14,17,17,21,21,24,24],"right_children":[2,4,6,8,-1,-1,-1,10,12,14,16,18,-1,20,22,-1,-1,24,-1,-1,-1,26,-1,-1,28,-1,-1,-1,-1],"split_conditions":[-9.536743E-7,3.1808734E-1,1.20317E-1,-9.536743E-7,-6.6058606E-2,1.4059E-2,-7.968365E-2,-9.536743E-7,-9.536743E-7,4.6617645E-1,-9.536743E-7,5.196079E-1,-3.535346E-2,-9.536743E-7,-9.536743E-7,1.7592449E-2,8.769163E-2,-9.536743E-7,-2.1203144E-2,-8.060135E-2,-1.06632295E-4,2.6806526E-2,6.747825E-2,5.8114E-3,6.2E-1,1.5098482E-2,-6.3140586E-2,1.1628467E-1,2.9131277E-2],"split_indices":[3024,14720,14431,9139,0,0,0,9438,3450,14663,11918,14625,0,10608,4397,0,0,11512,0,0,0,14495,0,0,14579,0,0,0,0],"split_type":[0,0,0,0,0,0,0,0,0,0,0,0,0,0,0,0,0,0,0,0,0,0,0,0,0,0,0,0,0],"sum_hessian":[2.6522696E1,2.2050985E1,4.4717093E0,2.0330946E1,1.720039E0,1.0136089E0,3.4581006E0,1.0886064E1,9.444883E0,8.471106E0,2.4149582E0,8.399526E0,1.0453573E0,3.9750967E0,4.496009E0,1.074836E0,1.3401222E0,7.3451962E0,1.0543292E0,2.9202614E0,1.0548354E0,2.4569306E0,2.0390782E0,1.125376E0,6.2198205E0,1.0229125E0,1.4340183E0,5.1419964E0,1.0778239E0],"tree_param":{"num_deleted":"0","num_feature":"14830","num_nodes":"29","size_leaf_vector":"0"}},{"base_weights":[5.7312936E-2,-1.5187858E-1,5.1912016E-1,1.7242856E-1,-5.070335E-1,-1.8863776E-1,8.494905E-1,4.1191784E-1,-3.108946E-1,-6.6300637E-1,3.363218E-1,-6.4019173E-1,4.7085166E-1,1.2895142E-1,1.1111376E0,6.5504104E-1,-8.991345E-2,3.186587E-1,-7.01745E-1,1.7275348E-1,-8.0175596E-1,-2.4107117E-2,8.9469403E-1,-5.513497E-1,3.66352E-1,-2.0149988E-1,-8.65514E-1],"categories":[],"categories_nodes":[],"categories_segments":[],"categories_sizes":[],"default_left":[0,1,0,0,1,1,1,1,0,1,0,0,0,0,0,1,1,0,0,0,0,0,0,0,0,0,0],"id":23,"left_children":[1,3,5,7,9,11,13,15,17,19,-1,-1,-1,-1,-1,21,23,-1,-1,-1,25,-1,-1,-1,-1,-1,-1],"loss_changes":[2.6670349E0,2.3002942E0,2.1661599E0,1.3768439E0,1.4625995E0,1.358125E0,9.936147E-1,9.915283E-1,1.243404E0,1.099771E0,0E0,0E0,0E0,0E0,0E0,8.793235E-1,9.123471E-1,0E0,0E0,0E0,1.044631E-1,0E0,0E0,0E0,0E0,0E0,0E0],"parents":[2147483647,0,0,1,1,2,2,3,3,4,4,5,5,6,6,7,7,8,8,9,9,15,15,16,16,20,20],"right_children":[2,4,6,8,10,12,14,16,18,20,-1,-1,-1,-1,-1,22,24,-1,-1,-1,26,-1,-1,-1,-1,-1,-1],"split_conditions":[4.75E-1,-9.536743E-7,5.4827586E-2,2.6602566E-1,-9.536743E-7,-9.536743E-7,-9.536743E-7,-9.536743E-7,7.191781E-2,3.3793103E-2,3.363218E-2,-6.401917E-2,4.7085166E-2,1.2895142E-2,1.11113764E-1,-9.536743E-7,1.1290322E-1,3.1865872E-2,-7.01745E-2,1.7275348E-2,1.3141027E-1,-2.4107117E-3,8.94694E-2,-5.513497E-2,3.66352E-2,-2.0149989E-2,-8.65514E-2],"split_indices":[14549,3905,14729,14524,4954,8846,9442,8971,14714,14729,0,0,0,0,0,8845,14454,0,0,0,14524,0,0,0,0,0,0],"split_type":[0,0,0,0,0,0,0,0,0,0,0,0,0,0,0,0,0,0,0,0,0,0,0,0,0,0,0],"sum_hessian":[2.5791168E1,1.8212368E1,7.5788E0,9.788536E0,8.423833E0,2.5483785E0,5.0304217E0,6.644091E0,3.1444452E0,7.2895303E0,1.1343023E0,1.5300269E0,1.0183516E0,1.7377499E0,3.292672E0,4.2700634E0,2.3740275E0,1.2751808E0,1.8692642E0,1.0029819E0,6.286548E0,1.3483652E0,2.9216983E0,1.0767143E0,1.2973132E0,1.0031049E0,5.2834435E0],"tree_param":{"num_deleted":"0","num_feature":"14830","num_nodes":"27","size_leaf_vector":"0"}},{"base_weights":[5.542543E-2,-2.061316E-1,3.9446366E-1,3.0474138E-1,-5.4589623E-1,5.3725314E-1,-5.390684E-1,-2.1892032E-1,5.3789514E-1,-8.069054E-1,3.4460637E-1,6.902554E-1,-3.52479E-1,7.3538923E-1,9.4413824E-2,-8.807039E-1,-1.5616034E-1,8.238877E-1,-2.1332406E-1,-7.018137E-3,9.799268E-1,1.104959E0,1.7945248E-1],"categories":[],"categories_nodes":[],"categories_segments":[],"categories_sizes":[],"default_left":[1,1,1,0,1,1,0,0,0,1,0,1,0,0,0,0,0,1,0,0,1,0,0],"id":24,"left_children":[1,3,5,7,9,11,-1,-1,13,15,-1,17,-1,-1,-1,-1,-1,19,-1,-1,21,-1,-1],"loss_changes":[2.389567E0,2.8308678E0,1.8464156E0,9.447156E-1,2.5041528E0,1.6904409E0,0E0,0E0,3.6637402E-1,2.3253489E-1,0E0,1.3118305E0,0E0,0E0,0E0,0E0,0E0,1.0962505E0,0E0,0E0,5.104022E-1,0E0,0E0],"parents":[2147483647,0,0,1,1,2,2,3,3,4,4,5,5,8,8,9,9,11,11,17,17,20,20],"right_children":[2,4,6,8,10,12,-1,-1,14,16,-1,18,-1,-1,-1,-1,-1,20,-1,-1,22,-1,-1],"split_conditions":[-9.536743E-7,-9.536743E-7,-9.536743E-7,3.0733335E-1,-9.536743E-7,-9.536743E-7,-5.390684E-2,-2.1892032E-2,1.5853658E-1,1.3723572E-1,3.4460638E-2,-9.536743E-7,-3.5247903E-2,7.353892E-2,9.441382E-3,-8.807039E-2,-1.5616034E-2,-9.536743E-7,-2.1332406E-2,-7.0181367E-4,-9.536743E-7,1.104959E-1,1.7945249E-2],"split_indices":[12400,5145,2380,14646,4552,11793,0,0,14393,14685,0,12031,0,0,0,0,0,12672,0,0,10265,0,0],"split_type":[0,0,0,0,0,0,0,0,0,0,0,0,0,0,0,0,0,0,0,0,0,0,0],"sum_hessian":[2.5029678E1,1.43506365E1,1.0679042E1,5.773154E0,8.577482E0,9.630493E0,1.0485489E0,1.7973549E0,3.975799E0,6.705852E0,1.8716305E0,8.408695E0,1.221798E0,2.2953842E0,1.6804149E0,5.705442E0,1.0004098E0,7.4021683E0,1.0065266E0,1.3212985E0,6.0808697E0,4.930376E0,1.1504937E0],"tree_param":{"num_deleted":"0","num_feature":"14830","num_nodes":"23","size_leaf_vector":"0"}},{"base_weights":[5.091024E-2,2.209539E-1,-4.637717E-1,-6.879376E-2,6.014425E-1,-7.431853E-1,4.563906E-1,-5.849683E-1,2.3193507E-1,7.701982E-1,-1.7412648E-1,-7.8291756E-1,6.701378E-2,7.764956E-1,-1.0124408E-1,-6.0872775E-2,9.4064677E-1,-4.3651724E-1,4.8250568E-1,1.0318279E0,2.959863E-1,-7.3806524E-1,2.6133502E-1],"categories":[],"categories_nodes":[],"categories_segments":[],"categories_sizes":[],"default_left":[1,1,1,1,1,0,0,1,1,0,0,0,0,0,0,0,1,1,0,0,0,0,0],"id":25,"left_children":[1,3,5,7,9,-1,-1,11,13,15,-1,-1,-1,-1,17,-1,19,21,-1,-1,-1,-1,-1],"loss_changes":[2.321617E0,2.2172596E0,2.04113E0,2.014211E0,1.2642682E0,0E0,0E0,6.6407406E-1,1.5959258E0,1.0879722E0,0E0,0E0,0E0,0E0,1.3992074E0,0E0,5.3078175E-2,1.1151209E0,0E0,0E0,0E0,0E0,0E0],"parents":[2147483647,0,0,1,1,2,2,3,3,4,4,7,7,8,8,9,9,14,14,16,16,17,17],"right_children":[2,4,6,8,10,-1,-1,12,14,16,-1,-1,-1,-1,18,-1,20,22,-1,-1,-1,-1,-1],"split_conditions":[-9.536743E-7,-9.536743E-7,-9.536743E-7,-9.536743E-7,1.7567568E-1,-7.431853E-2,4.563906E-2,-9.536743E-7,7.850877E-1,1.0148108E-2,-1.7412648E-2,-7.829176E-2,6.7013777E-3,7.7649556E-2,2.4423632E-1,-6.0872776E-3,-9.536743E-7,-9.536743E-7,4.8250567E-2,1.0318279E-1,2.959863E-2,-7.3806524E-2,2.6133502E-2],"split_indices":[10612,1940,2413,4279,14540,0,0,11080,14533,14525,0,0,0,0,14431,0,12868,4397,0,0,0,0,0],"split_type":[0,0,0,0,0,0,0,0,0,0,0,0,0,0,0,0,0,0,0,0,0,0,0],"sum_hessian":[2.4356321E1,1.8736683E1,5.619638E0,1.1101741E1,7.6349425E0,4.4582057E0,1.1614321E0,3.738966E0,7.362775E0,6.276226E0,1.3587167E0,2.7141058E0,1.02486E0,2.2897527E0,5.0730224E0,1.1775597E0,5.098666E0,3.3825142E0,1.6905081E0,3.9407136E0,1.1579527E0,2.3216746E0,1.0608397E0],"tree_param":{"num_deleted":"0","num_feature":"14830","num_nodes":"23","size_leaf_vector":"0"}},{"base_weights":[4.9988855E-2,-1.4615494E-1,4.7262108E-1,2.400992E-1,-4.2273983E-1,-9.157911E-2,8.3573115E-1,-5.0312865E-1,5.150528E-1,-6.435984E-1,2.819394E-1,-6.400988E-1,5.0164574E-1,1.692901E-1,9.659762E-1,-6.034015E-2,7.5304884E-1,-7.943995E-1,2.0848897E-1,-2.4782161E-1,6.366884E-1,9.0675515E-1,1.5513766E-1,-8.748307E-1,-1.5031615E-1],"categories":[],"categories_nodes":[],"categories_segments":[],"categories_sizes":[],"default_left":[0,1,0,1,1,1,1,0,1,1,1,0,0,0,0,0,1,1,0,0,0,0,0,0,0],"id":26,"left_children":[1,3,5,7,9,11,13,-1,15,17,19,-1,-1,-1,-1,-1,21,23,-1,-1,-1,-1,-1,-1,-1],"loss_changes":[2.110372E0,1.9798971E0,1.7240465E0,1.8887652E0,1.8324488E0,1.6390274E0,2.6974726E-1,0E0,9.1025436E-1,1.242595E0,7.6419926E-1,0E0,0E0,0E0,0E0,0E0,2.7671242E-1,2.4817228E-1,0E0,0E0,0E0,0E0,0E0,0E0,0E0],"parents":[2147483647,0,0,1,1,2,2,3,3,4,4,5,5,6,6,8,8,9,9,10,10,16,16,17,17],"right_children":[2,4,6,8,10,12,14,-1,16,18,20,-1,-1,-1,-1,-1,22,24,-1,-1,-1,-1,-1,-1,-1],"split_conditions":[4.75E-1,-9.536743E-7,6.965517E-2,-9.536743E-7,-9.536743E-7,-9.536743E-7,-9.536743E-7,-5.0312866E-2,-9.536743E-7,4.6428573E-1,-9.536743E-7,-6.400988E-2,5.0164577E-2,1.692901E-2,9.659762E-2,-6.034015E-3,-9.536743E-7,1.9272238E-1,2.0848898E-2,-2.4782162E-2,6.366884E-2,9.067552E-2,1.5513766E-2,-8.748307E-2,-1.5031615E-2],"split_indices":[14549,3023,14729,11792,9887,14276,9137,0,8832,14406,495,0,0,0,0,0,11066,14413,0,0,0,0,0,0,0],"split_type":[0,0,0,0,0,0,0,0,0,0,0,0,0,0,0,0,0,0,0,0,0,0,0,0,0],"sum_hessian":[2.3624578E1,1.6582714E1,7.0418644E0,6.9745646E0,9.608149E0,3.0502226E0,3.9916418E0,1.6593373E0,5.3152275E0,7.381377E0,2.2267714E0,1.5437726E0,1.5064502E0,1.0285437E0,2.963098E0,1.77364E0,3.5415874E0,6.328985E0,1.0523921E0,1.0139766E0,1.2127949E0,2.4064245E0,1.1351628E0,5.3078938E0,1.0210912E0],"tree_param":{"num_deleted":"0","num_feature":"14830","num_nodes":"25","size_leaf_vector":"0"}},{"base_weights":[5.008817E-2,4.3773738E-1,-1.56332E-1,-2.2176942E-1,5.689723E-1,-5.2450055E-1,2.2285481E-1,7.2849053E-1,-1.5321176E-1,-7.808685E-1,3.0004737E-1,6.4146173E-1,-1.8456769E-1,2.853555E-2,9.044157E-1,-8.544547E-1,-1.7882906E-1,8.4485674E-1,-3.3184413E-2,-7.0667857E-1,4.0115142E-1,6.3821477E-1,-2.718872E-2],"categories":[],"categories_nodes":[],"categories_segments":[],"categories_sizes":[],"default_left":[1,1,1,0,1,1,1,1,0,1,0,1,1,0,0,0,0,0,0,0,1,0,0],"id":27,"left_children":[1,3,5,-1,7,9,11,13,-1,15,-1,17,19,-1,-1,-1,-1,-1,-1,-1,21,-1,-1],"loss_changes":[1.9816892E0,8.680179E-1,2.3978848E0,0E0,9.674587E-1,2.049721E0,1.6108505E0,7.448993E-1,0E0,1.4972687E-1,0E0,6.5096176E-1,1.8771333E0,0E0,0E0,0E0,0E0,0E0,0E0,0E0,3.3151883E-1,0E0,0E0],"parents":[2147483647,0,0,1,1,2,2,4,4,5,5,6,6,7,7,9,9,11,11,12,12,20,20],"right_children":[2,4,6,-1,8,10,12,14,-1,16,-1,18,20,-1,-1,-1,-1,-1,-1,-1,22,-1,-1],"split_conditions":[-9.536743E-7,-9.536743E-7,-9.536743E-7,-2.2176942E-2,-9.536743E-7,-9.536743E-7,-9.536743E-7,-9.536743E-7,-1.5321176E-2,1.8598384E-1,3.0004738E-2,-9.536743E-7,-9.536743E-7,2.8535551E-3,9.044158E-2,-8.544547E-2,-1.7882906E-2,8.448567E-2,-3.3184413E-3,-7.0667855E-2,1.1095101E-1,6.382148E-2,-2.7188722E-3],"split_indices":[5145,2365,12400,0,11794,4552,3105,3378,0,14413,0,4067,12311,0,0,0,0,0,0,0,14431,0,0],"split_type":[0,0,0,0,0,0,0,0,0,0,0,0,0,0,0,0,0,0,0,0,0,0,0],"sum_hessian":[2.2910147E1,7.5711675E0,1.5338978E1,1.1420506E0,6.429117E0,7.588123E0,7.7508554E0,5.258804E0,1.1703132E0,5.8288074E0,1.7593155E0,3.539624E0,4.211231E0,1.2896935E0,3.9691105E0,4.820357E0,1.0084506E0,2.5258305E0,1.0137935E0,2.117328E0,2.0939035E0,1.0324987E0,1.0614047E0],"tree_param":{"num_deleted":"0","num_feature":"14830","num_nodes":"23","size_leaf_vector":"0"}},{"base_weights":[4.8156552E-2,2.0016308E-1,-4.290437E-1,6.834112E-1,1.1852132E-2,-7.0417905E-1,4.0774846E-1,9.115879E-1,3.5300646E-2,2.0279318E-1,-7.0977134E-1,-1.6496457E-1,4.976855E-1,-5.678105E-1,2.945836E-1,7.998899E-1,-1.310919E-1,-3.3574224E-1,7.664244E-1,9.2062396E-1,2.3730841E-1,-5.401364E-1,3.459129E-1],"categories":[],"categories_nodes":[],"categories_segments":[],"categories_sizes":[],"default_left":[1,1,1,1,1,0,0,0,0,1,0,1,1,0,1,1,1,0,0,0,0,0,0],"id":28,"left_children":[1,3,5,7,9,-1,-1,-1,-1,11,-1,13,15,-1,17,19,21,-1,-1,-1,-1,-1,-1],"loss_changes":[1.7693793E0,1.6557333E0,1.6512413E0,7.233968E-1,2.0969985E0,0E0,0E0,0E0,0E0,1.382015E0,0E0,1.2938114E0,1.4162157E0,0E0,1.2985606E0,1.07679844E-1,7.9157704E-1,0E0,0E0,0E0,0E0,0E0,0E0],"parents":[2147483647,0,0,1,1,2,2,3,3,4,4,9,9,11,11,12,12,14,14,15,15,16,16],"right_children":[2,4,6,8,10,-1,-1,-1,-1,12,-1,14,16,-1,18,20,22,-1,-1,-1,-1,-1,-1],"split_conditions":[-9.536743E-7,1.1599424E-1,-9.536743E-7,-9.536743E-7,7.876712E-2,-7.04179E-2,4.077485E-2,9.115879E-2,3.5300646E-3,-9.536743E-7,-7.097714E-2,-9.536743E-7,-9.536743E-7,-5.678105E-2,-9.536743E-7,3.9473683E-1,-9.536743E-7,-3.3574224E-2,7.6642446E-2,9.20624E-2,2.3730842E-2,-5.401364E-2,3.459129E-2],"split_indices":[10612,14431,2413,11263,14714,0,0,0,0,8515,0,4397,12028,0,12926,14569,1037,0,0,0,0,0,0],"split_type":[0,0,0,0,0,0,0,0,0,0,0,0,0,0,0,0,0,0,0,0,0,0,0],"sum_hessian":[2.2208675E1,1.7283703E1,4.924973E0,4.109259E0,1.3174443E1,3.8256018E0,1.0993713E0,2.738573E0,1.370686E0,1.0986421E1,2.1880226E0,5.085246E0,5.9011745E0,2.584263E0,2.5009828E0,3.8018062E0,2.0993683E0,1.194161E0,1.3068218E0,2.6060922E0,1.1957139E0,1.0589446E0,1.0404236E0],"tree_param":{"num_deleted":"0","num_feature":"14830","num_nodes":"23","size_leaf_vector":"0"}},{"base_weights":[4.7580663E-2,1.6878776E-1,-5.222118E-1,4.1111362E-1,-1.2521139E-1,-7.00299E-1,2.1878675E-2,-2.858076E-1,5.6221753E-1,-3.625744E-1,4.6429238E-1,8.931985E-2,7.519082E-1,-5.713313E-1,3.383088E-1,5.3493716E-2,6.5531576E-1,-5.308293E-1,5.1315874E-1,8.921899E-1,6.0974844E-2,-7.0839113E-1,8.522588E-3,9.9660504E-1,2.374797E-1],"categories":[],"categories_nodes":[],"categories_segments":[],"categories_sizes":[],"default_left":[1,1,1,1,1,0,0,0,0,1,1,1,1,1,0,0,0,0,0,1,0,0,0,0,0],"id":29,"left_children":[1,3,5,7,9,-1,-1,-1,11,13,15,17,19,21,-1,-1,-1,-1,-1,23,-1,-1,-1,-1,-1],"loss_changes":[1.6418642E0,1.4269571E0,4.2135882E-1,1.2997868E0,1.4962182E0,0E0,0E0,0E0,7.604995E-1,1.2653537E0,2.1312642E-1,1.2649605E0,5.7079554E-1,4.8427904E-1,0E0,0E0,0E0,0E0,0E0,1.2484598E-1,0E0,0E0,0E0,0E0,0E0],"parents":[2147483647,0,0,1,1,2,2,3,3,4,4,8,8,9,9,10,10,11,11,12,12,13,13,19,19],"right_children":[2,4,6,8,10,-1,-1,-1,12,14,16,18,20,22,-1,-1,-1,-1,-1,24,-1,-1,-1,-1,-1],"split_conditions":[-9.536743E-7,-9.536743E-7,-9.536743E-7,-9.536743E-7,-9.536743E-7,-7.002991E-2,2.1878674E-3,-2.858076E-2,6.555556E-1,-9.536743E-7,-9.536743E-7,-9.536743E-7,3.1666666E-1,-9.536743E-7,3.383088E-2,5.3493716E-3,6.5531574E-2,-5.308293E-2,5.1315874E-2,-9.536743E-7,6.0974844E-3,-7.0839114E-2,8.522588E-4,9.966051E-2,2.3747971E-2],"split_indices":[3024,11280,13000,11887,13233,0,0,0,14487,12937,9014,9424,14646,946,0,0,0,0,0,2434,0,0,0,0,0],"split_type":[0,0,0,0,0,0,0,0,0,0,0,0,0,0,0,0,0,0,0,0,0,0,0,0,0],"sum_hessian":[2.1497192E1,1.830673E1,3.1904619E0,9.8169E0,8.489831E0,2.1873996E0,1.0030622E0,1.5903633E0,8.226537E0,6.3271585E0,2.162673E0,2.776245E0,5.4502916E0,5.0175347E0,1.3096236E0,1.0927452E0,1.0699277E0,1.0246192E0,1.7516259E0,4.288338E0,1.1619533E0,3.8789883E0,1.1385465E0,3.2481117E0,1.0402266E0],"tree_param":{"num_deleted":"0","num_feature":"14830","num_nodes":"25","size_leaf_vector":"0"}},{"base_weights":[4.6624966E-2,3.9431968E-1,-1.4678966E-1,-1.4978018E-1,5.3655976E-1,-3.9749664E-1,3.5562325E-1,-4.5564175E-2,6.8360525E-1,4.234237E-1,-5.7150704E-1,6.2136674E-1,-2.2792672E-1,9.2868574E-2,9.088007E-1,-8.1559163E-1,5.7897676E-2,9.287791E-2,7.906009E-1,5.1999044E-1,-3.9480263E-1],"categories":[],"categories_nodes":[],"categories_segments":[],"categories_sizes":[],"default_left":[1,1,1,0,0,0,1,0,1,0,1,1,0,0,0,0,1,0,0,0,0],"id":30,"left_children":[1,3,5,-1,7,9,11,-1,13,-1,15,17,-1,-1,-1,-1,19,-1,-1,-1,-1],"loss_changes":[1.5313293E0,7.074717E-1,2.0064695E0,0E0,5.996814E-1,1.7205182E0,9.8787385E-1,0E0,6.293037E-1,0E0,1.4245968E0,2.859254E-1,0E0,0E0,0E0,0E0,9.2470604E-1,0E0,0E0,0E0,0E0],"parents":[2147483647,0,0,1,1,2,2,4,4,5,5,6,6,8,8,10,10,11,11,16,16],"right_children":[2,4,6,-1,8,10,12,-1,14,-1,16,18,-1,-1,-1,-1,20,-1,-1,-1,-1],"split_conditions":[-9.536743E-7,-9.536743E-7,-9.536743E-7,-1.4978019E-2,7.0238096E-1,3.0607477E-2,-9.536743E-7,-4.5564175E-3,-9.536743E-7,4.2342372E-2,-9.536743E-7,-9.536743E-7,-2.2792673E-2,9.286857E-3,9.088007E-2,-8.155917E-2,1.3112393E-1,9.287791E-3,7.906009E-2,5.1999044E-2,-3.9480265E-2],"split_indices":[5145,10500,5101,0,14633,14711,11099,0,3909,0,9700,9882,0,0,0,0,14431,0,0,0,0],"split_type":[0,0,0,0,0,0,0,0,0,0,0,0,0,0,0,0,0,0,0,0,0],"sum_hessian":[2.0910244E1,7.102893E0,1.380735E1,1.4610485E0,5.6418443E0,9.350314E0,4.4570365E0,1.2769173E0,4.364927E0,1.384658E0,7.965656E0,3.0179048E0,1.4391317E0,1.5945268E0,2.7704E0,5.5266094E0,2.4390464E0,1.107667E0,1.9102379E0,1.1334442E0,1.3056022E0],"tree_param":{"num_deleted":"0","num_feature":"14830","num_nodes":"21","size_leaf_vector":"0"}},{"base_weights":[4.8215274E-2,-1.8188031E-1,3.374725E-1,2.2485986E-1,-4.9264485E-1,4.75417E-1,-3.6952788E-1,-2.2887293E-1,4.3491492E-1,-7.4399453E-1,2.5307384E-1,-9.5183566E-2,6.776453E-1,6.2700945E-1,1.2092047E-2,-8.1306547E-1,-2.0828633E-1,-4.3499744E-1,3.1507212E-1,7.776092E-1,6.702351E-2,8.903797E-1,2.161264E-1],"categories":[],"categories_nodes":[],"categories_segments":[],"categories_sizes":[],"default_left":[1,1,1,0,1,0,0,0,0,1,0,1,1,0,0,0,0,0,0,1,0,0,0],"id":31,"left_children":[1,3,5,7,9,11,-1,-1,13,15,-1,17,19,-1,-1,-1,-1,-1,-1,21,-1,-1,-1],"loss_changes":[1.4799179E0,1.6933508E0,1.1307468E0,6.818196E-1,1.577363E0,1.0604957E0,0E0,0E0,3.5961294E-1,4.513216E-2,0E0,5.741704E-1,3.4439802E-1,0E0,0E0,0E0,0E0,0E0,0E0,1.5504718E-1,0E0,0E0,0E0],"parents":[2147483647,0,0,1,1,2,2,3,3,4,4,5,5,8,8,9,9,11,11,12,12,19,19],"right_children":[2,4,6,8,10,12,-1,-1,14,16,-1,18,20,-1,-1,-1,-1,-1,-1,22,-1,-1,-1],"split_conditions":[-9.536743E-7,-9.536743E-7,-9.536743E-7,3.0733335E-1,-9.536743E-7,2.28E-1,-3.695279E-2,-2.2887293E-2,1.5853658E-1,1.3865247E-2,2.5307385E-2,-9.536743E-7,-9.536743E-7,6.270095E-2,1.2092048E-3,-8.130655E-2,-2.0828633E-2,-4.3499745E-2,3.1507213E-2,-9.536743E-7,6.702351E-3,8.903798E-2,2.161264E-2],"split_indices":[12400,5145,12823,14646,4552,14646,0,0,14393,14396,0,1052,10008,0,0,0,0,0,0,12211,0,0,0],"split_type":[0,0,0,0,0,0,0,0,0,0,0,0,0,0,0,0,0,0,0,0,0,0,0],"sum_hessian":[2.0313194E1,1.15203285E1,8.792865E0,5.1093936E0,6.410935E0,7.631436E0,1.1614294E0,1.5885135E0,3.52088E0,4.79654E0,1.6143953E0,2.1354496E0,5.495986E0,2.0889342E0,1.4319459E0,3.790125E0,1.0064147E0,1.1350129E0,1.0004368E0,4.487821E0,1.008165E0,3.2494278E0,1.2383931E0],"tree_param":{"num_deleted":"0","num_feature":"14830","num_nodes":"23","size_leaf_vector":"0"}},{"base_weights":[4.5574065E-2,1.8367429E-1,-4.0275222E-1,-6.672172E-2,5.0243425E-1,-6.667192E-1,3.5487464E-1,2.2757818E-1,-5.0793034E-1,7.3457813E-1,-1.5358081E-2,4.7725067E-1,-1.8620344E-1,5.068342E-2,-7.1890444E-1,2.1651925E-1,8.268455E-1,4.704229E-1,-4.757546E-1,3.7249368E-2,6.9754463E-1,-5.5858004E-1,2.749916E-1],"categories":[],"categories_nodes":[],"categories_segments":[],"categories_sizes":[],"default_left":[1,1,1,1,1,0,0,1,1,0,1,1,1,0,0,0,0,0,0,0,0,0,0],"id":32,"left_children":[1,3,5,7,9,-1,-1,11,13,15,17,19,21,-1,-1,-1,-1,-1,-1,-1,-1,-1,-1],"loss_changes":[1.363157E0,1.3589067E0,1.2798839E0,1.4378026E0,9.035038E-1,0E0,0E0,7.912601E-1,5.530876E-1,6.692433E-2,9.5676214E-1,4.1223454E-1,7.1654946E-1,0E0,0E0,0E0,0E0,0E0,0E0,0E0,0E0,0E0,0E0],"parents":[2147483647,0,0,1,1,2,2,3,3,4,4,7,7,8,8,9,9,10,10,11,11,12,12],"right_children":[2,4,6,8,10,-1,-1,12,14,16,18,20,22,-1,-1,-1,-1,-1,-1,-1,-1,-1,-1],"split_conditions":[-9.536743E-7,-9.536743E-7,-9.536743E-7,6.25E-2,-9.536743E-7,-6.667192E-2,3.5487466E-2,-9.536743E-7,-9.536743E-7,6.412338E-1,-9.536743E-7,-9.536743E-7,-9.536743E-7,5.068342E-3,-7.189044E-2,2.1651926E-2,8.2684554E-2,4.704229E-2,-4.757546E-2,3.7249369E-3,6.975447E-2,-5.5858005E-2,2.749916E-2],"split_indices":[10612,1940,2413,14496,9029,0,0,10798,11826,14439,11508,11792,12926,0,0,0,0,0,0,0,0,0,0],"split_type":[0,0,0,0,0,0,0,0,0,0,0,0,0,0,0,0,0,0,0,0,0,0,0],"sum_hessian":[1.982215E1,1.5605438E1,4.216711E0,9.182768E0,6.42267E0,3.2161522E0,1.0005589E0,5.798909E0,3.3838592E0,4.1454506E0,2.2772193E0,3.5209863E0,2.2779226E0,1.135929E0,2.24793E0,1.1326345E0,3.0128162E0,1.0974658E0,1.1797535E0,1.5647477E0,1.9562387E0,1.1434909E0,1.1344317E0],"tree_param":{"num_deleted":"0","num_feature":"14830","num_nodes":"23","size_leaf_vector":"0"}},{"base_weights":[4.413765E-2,-1.4128661E-1,3.7615407E-1,5.949138E-2,-6.289215E-1,-3.4721017E-1,5.707389E-1,-2.0168518E-1,5.240297E-1,3.993753E-2,7.77271E-1,2.3190862E-1,-5.938377E-1,7.2826785E-1,8.0092095E-2,8.659314E-1,2.3767954E-1,-3.290796E-1,5.090164E-1,-7.124983E-1,-1.05820335E-1,1.3193126E-1,6.7735016E-1],"categories":[],"categories_nodes":[],"categories_segments":[],"categories_sizes":[],"default_left":[1,1,0,1,0,0,1,1,1,0,1,1,0,0,0,0,0,0,1,0,0,0,0],"id":33,"left_children":[1,3,5,7,-1,-1,9,11,13,-1,15,17,19,-1,-1,-1,-1,-1,21,-1,-1,-1,-1],"loss_changes":[1.3018891E0,1.3828456E0,1.2597021E0,1.3975359E0,0E0,0E0,6.61942E-1,1.419404E0,3.1431162E-1,0E0,9.298801E-3,8.357892E-1,1.7007077E-1,0E0,0E0,0E0,0E0,0E0,1.1821395E-1,0E0,0E0,0E0,0E0],"parents":[2147483647,0,0,1,1,2,2,3,3,6,6,7,7,8,8,10,10,11,11,12,12,18,18],"right_children":[2,4,6,8,-1,-1,10,12,14,-1,16,18,20,-1,-1,-1,-1,-1,22,-1,-1,-1,-1],"split_conditions":[-9.536743E-7,-9.536743E-7,6.527778E-1,-9.536743E-7,-6.2892154E-2,-3.4721017E-2,-9.536743E-7,-9.536743E-7,-9.536743E-7,3.993753E-3,-9.536743E-7,-9.536743E-7,5.3676474E-1,7.282679E-2,8.009209E-3,8.659314E-2,2.3767954E-2,-3.290796E-2,-9.536743E-7,-7.1249835E-2,-1.0582034E-2,1.3193126E-2,6.773502E-2],"split_indices":[11918,11099,14456,825,0,0,1101,5145,8971,0,2915,11792,14663,0,0,0,0,0,796,0,0,0,0],"split_type":[0,0,0,0,0,0,0,0,0,0,0,0,0,0,0,0,0,0,0,0,0,0,0],"sum_hessian":[1.92837E1,1.2742011E1,6.541689E0,9.647688E0,3.094323E0,1.2204252E0,5.321264E0,6.5377936E0,3.1098948E0,1.824793E0,3.4964707E0,3.2989018E0,3.2388916E0,1.6913143E0,1.4185804E0,2.483599E0,1.0128717E0,1.028736E0,2.270166E0,2.2353776E0,1.003514E0,1.251168E0,1.0189979E0],"tree_param":{"num_deleted":"0","num_feature":"14830","num_nodes":"23","size_leaf_vector":"0"}},{"base_weights":[4.373602E-2,1.9029905E-1,-3.426653E-1,2.9738492E-1,-3.54153E-1,4.1248557E-1,-6.745239E-1,3.8415572E-1,-3.3909848E-1,-4.7502372E-2,6.340883E-1,-4.919785E-1,4.4653866E-1,7.6441175E-1,4.6113953E-2,-1.021328E-1,-6.185546E-1,7.016507E-1,-3.37873E-2,9.135558E-1,2.8159177E-1],"categories":[],"categories_nodes":[],"categories_segments":[],"categories_sizes":[],"default_left":[1,1,1,1,0,0,0,1,0,1,1,0,1,1,0,0,0,0,0,0,0],"id":34,"left_children":[1,3,5,7,-1,-1,-1,9,-1,11,13,15,17,19,-1,-1,-1,-1,-1,-1,-1],"loss_changes":[1.1854427E0,9.789431E-1,1.7309085E0,8.5182E-1,0E0,0E0,0E0,1.3211166E0,0E0,1.3875196E0,5.508008E-1,9.844798E-2,3.9657456E-1,1.8894291E-1,0E0,0E0,0E0,0E0,0E0,0E0,0E0],"parents":[2147483647,0,0,1,1,2,2,3,3,7,7,9,9,10,10,11,11,12,12,13,13],"right_children":[2,4,6,8,-1,-1,-1,10,-1,12,14,16,18,20,-1,-1,-1,-1,-1,-1,-1],"split_conditions":[7.876712E-2,3.425926E-1,1.1023055E-1,-9.536743E-7,-3.5415303E-2,4.1248556E-2,-6.745239E-2,-9.536743E-7,-3.390985E-2,-9.536743E-7,7.688172E-1,8.9784944E-1,7.763158E-1,-9.536743E-7,4.6113953E-3,-1.021328E-2,-6.185546E-2,7.016507E-2,-3.37873E-3,9.1355585E-2,2.8159177E-2],"split_indices":[14714,14785,14431,3205,0,0,0,822,0,11508,14703,14703,14533,11280,0,0,0,0,0,0,0],"split_type":[0,0,0,0,0,0,0,0,0,0,0,0,0,0,0,0,0,0,0,0,0],"sum_hessian":[1.8780882E1,1.3984161E1,4.7967196E0,1.206495E1,1.9192114E0,1.3902415E0,3.4064782E0,1.0966363E1,1.098587E0,4.318253E0,6.6481094E0,2.2753518E0,2.0429013E0,5.196285E0,1.4518248E0,1.0005659E0,1.2747859E0,1.0333079E0,1.0095935E0,3.2883747E0,1.9079102E0],"tree_param":{"num_deleted":"0","num_feature":"14830","num_nodes":"21","size_leaf_vector":"0"}},{"base_weights":[4.1477613E-2,-1.703492E-1,3.0917454E-1,1.8968469E-1,-4.6304938E-1,4.352602E-1,-3.332126E-1,4.3195117E-1,-1.9346339E-1,-7.0939016E-1,2.2375089E-1,-9.0322725E-2,6.163417E-1,7.0846444E-1,-7.936838E-2,7.2962594E-1,7.617564E-2,2.2849293E-1,8.1592375E-1],"categories":[],"categories_nodes":[],"categories_segments":[],"categories_sizes":[],"default_left":[1,1,1,1,1,0,0,1,0,0,0,0,1,0,0,1,0,0,0],"id":35,"left_children":[1,3,5,7,9,11,-1,13,-1,-1,-1,-1,15,-1,-1,17,-1,-1,-1],"loss_changes":[1.145658E0,1.2897228E0,8.634523E-1,6.2414396E-1,1.2722119E0,8.0260193E-1,0E0,6.044004E-1,0E0,0E0,0E0,0E0,3.0942464E-1,0E0,0E0,2.176547E-2,0E0,0E0,0E0],"parents":[2147483647,0,0,1,1,2,2,3,3,4,4,5,5,7,7,12,12,15,15],"right_children":[2,4,6,8,10,12,-1,14,-1,-1,-1,-1,16,-1,-1,18,-1,-1,-1],"split_conditions":[-9.536743E-7,-9.536743E-7,-9.536743E-7,2.6602566E-1,-9.536743E-7,2.28E-1,-3.332126E-2,-9.536743E-7,-1.934634E-2,-7.093902E-2,2.237509E-2,-9.032273E-3,-9.536743E-7,7.0846446E-2,-7.936838E-3,-9.536743E-7,7.617564E-3,2.2849293E-2,8.159237E-2],"split_indices":[12400,5145,12823,14524,4552,14646,0,9755,0,0,0,0,7301,0,0,6689,0,0,0],"split_type":[0,0,0,0,0,0,0,0,0,0,0,0,0,0,0,0,0,0,0],"sum_hessian":[1.8274895E1,1.0405075E1,7.8698187E0,4.823684E0,5.581391E0,6.848124E0,1.0216943E0,2.8771033E0,1.946581E0,4.083746E0,1.4976451E0,1.8832521E0,4.964872E0,1.6170617E0,1.2600416E0,3.8142083E0,1.1506637E0,1.0962117E0,2.7179966E0],"tree_param":{"num_deleted":"0","num_feature":"14830","num_nodes":"19","size_leaf_vector":"0"}},{"base_weights":[4.136435E-2,3.1515247E-1,-1.6265142E-1,4.7784778E-1,-3.4056795E-1,-7.166667E-1,5.7898857E-2,-4.639812E-2,6.947179E-1,-5.1312727E-1,2.7548006E-1,-3.5140172E-1,2.806027E-1,8.0260026E-1,1.2570962E-1,4.315743E-1,-3.0008227E-1,5.7079226E-1,-1.3872059E-1,6.7828715E-1,1.0238901E-1],"categories":[],"categories_nodes":[],"categories_segments":[],"categories_sizes":[],"default_left":[1,1,0,1,0,0,1,1,1,0,1,0,0,0,0,1,0,1,0,0,0],"id":36,"left_children":[1,3,5,7,-1,-1,9,11,13,-1,15,-1,-1,-1,-1,17,-1,19,-1,-1,-1],"loss_changes":[1.1042358E0,1.0577688E0,1.4419674E0,8.4377253E-1,0E0,0E0,1.2748729E0,4.004219E-1,2.1289921E-1,0E0,7.8147155E-1,0E0,0E0,0E0,0E0,5.6497955E-1,0E0,1.8802845E-1,0E0,0E0,0E0],"parents":[2147483647,0,0,1,1,2,2,3,3,6,6,7,7,8,8,10,10,15,15,17,17],"right_children":[2,4,6,8,-1,-1,10,12,14,-1,16,-1,-1,-1,-1,18,-1,20,-1,-1,-1],"split_conditions":[1.4193083E-1,-9.536743E-7,7.923729E-1,-9.536743E-7,-3.4056794E-2,-7.166667E-2,-9.536743E-7,-9.536743E-7,-9.536743E-7,-5.1312726E-2,-9.536743E-7,-3.514017E-2,2.806027E-2,8.026003E-2,1.2570962E-2,8.548387E-1,-3.0008227E-2,7.7619664E-3,-1.3872059E-2,6.7828715E-2,1.0238901E-2],"split_indices":[14431,9756,14709,3378,0,0,822,9657,8896,0,3450,0,0,0,0,14703,0,14380,0,0,0],"split_type":[0,0,0,0,0,0,0,0,0,0,0,0,0,0,0,0,0,0,0,0,0],"sum_hessian":[1.7851246E1,7.3896413E0,1.0461605E1,6.13797E0,1.2516712E0,2.3383348E0,8.12327E0,2.0261524E0,4.1118174E0,1.8664863E0,6.256784E0,1.0097281E0,1.0164244E0,3.1113827E0,1.0004346E0,5.1187363E0,1.1380477E0,4.113656E0,1.0050803E0,2.981371E0,1.1322852E0],"tree_param":{"num_deleted":"0","num_feature":"14830","num_nodes":"21","size_leaf_vector":"0"}},{"base_weights":[3.5947714E-2,-1.2545735E-1,3.636532E-1,-3.804826E-1,2.0080593E-1,-1.4110872E-1,6.416876E-1,2.2170381E-1,-5.877499E-1,6.3184404E-1,-1.4539321E-1,-5.3059685E-1,3.2006016E-1,7.417097E-2,8.247762E-1,1.4203595E-1,-7.718472E-1,1.8586086E-1,-5.6161314E-1,-1.7073147E-1,4.4802016E-1],"categories":[],"categories_nodes":[],"categories_segments":[],"categories_sizes":[],"default_left":[0,1,0,1,1,1,1,0,0,0,1,0,0,0,0,0,0,1,0,0,0],"id":37,"left_children":[1,3,5,7,9,11,13,-1,15,-1,17,-1,-1,-1,-1,-1,-1,19,-1,-1,-1],"loss_changes":[1.0189157E0,1.1640849E0,9.7873795E-1,1.0891982E0,1.0453633E0,7.2082543E-1,3.8158798E-1,0E0,9.143014E-1,0E0,7.0503205E-1,0E0,0E0,0E0,0E0,0E0,0E0,3.7350845E-1,0E0,0E0,0E0],"parents":[2147483647,0,0,1,1,2,2,3,3,4,4,5,5,6,6,8,8,10,10,17,17],"right_children":[2,4,6,8,10,12,14,-1,16,-1,18,-1,-1,-1,-1,-1,-1,20,-1,-1,-1],"split_conditions":[4.75E-1,3.5348362E-1,6.586207E-2,-9.536743E-7,-9.536743E-7,-9.536743E-7,-9.536743E-7,2.2170382E-2,2.514706E-1,6.31844E-2,-9.536743E-7,-5.3059686E-2,3.2006018E-2,7.417097E-3,8.247762E-2,1.4203595E-2,-7.718472E-2,-9.536743E-7,-5.6161314E-2,-1.7073147E-2,4.4802018E-2],"split_indices":[14549,14596,14729,12284,11890,14276,9442,0,14663,0,11407,0,0,0,0,0,0,13326,0,0,0],"split_type":[0,0,0,0,0,0,0,0,0,0,0,0,0,0,0,0,0,0,0,0,0],"sum_hessian":[1.7401049E1,1.2072255E1,5.3287935E0,6.682592E0,5.3896627E0,2.0676045E0,3.2611887E0,1.6932982E0,4.989294E0,2.0331652E0,3.3564975E0,1.039299E0,1.0283056E0,1.1382097E0,2.122979E0,1.0510937E0,3.9382002E0,2.1771998E0,1.1792977E0,1.0702211E0,1.1069788E0],"tree_param":{"num_deleted":"0","num_feature":"14830","num_nodes":"21","size_leaf_vector":"0"}},{"base_weights":[3.63407E-2,-1.3475846E-1,3.3986542E-1,-3.4687987E-1,2.4432933E-1,-2.9337588E-1,5.0798666E-1,1.4056654E-1,-6.7457473E-1,4.688162E-1,-2.7041686E-1,-1.8805362E-2,6.5102524E-1,-1.2685323E-1,4.8199245E-1,-1.4316006E-1,-7.728204E-1,6.506582E-1,6.3721575E-2,1.5407299E-1,7.552131E-1,-4.6245942E-1,2.539254E-1],"categories":[],"categories_nodes":[],"categories_segments":[],"categories_sizes":[],"default_left":[1,1,0,1,1,0,1,1,1,1,0,0,1,1,0,0,0,0,0,0,0,0,0],"id":38,"left_children":[1,3,5,7,9,-1,11,13,15,17,-1,-1,19,21,-1,-1,-1,-1,-1,-1,-1,-1,-1],"loss_changes":[9.745982E-1,1.0620388E0,8.6564606E-1,1.4056152E0,6.9845176E-1,0E0,4.4062793E-1,4.3790787E-1,1.5456605E-1,2.3924863E-1,0E0,0E0,1.1659396E-1,5.143112E-1,0E0,0E0,0E0,0E0,0E0,0E0,0E0,0E0,0E0],"parents":[2147483647,0,0,1,1,2,2,3,3,4,4,6,6,7,7,8,8,9,9,12,12,13,13],"right_children":[2,4,6,8,10,-1,12,14,16,18,-1,-1,20,22,-1,-1,-1,-1,-1,-1,-1,-1,-1],"split_conditions":[-9.536743E-7,-9.536743E-7,6.527778E-1,-9.536743E-7,-9.536743E-7,-2.9337589E-2,-9.536743E-7,-9.536743E-7,2.75E-1,-9.536743E-7,-2.7041687E-2,-1.8805362E-3,-9.536743E-7,-9.536743E-7,4.8199248E-2,-1.4316007E-2,-7.728204E-2,6.506582E-2,6.3721575E-3,1.5407299E-2,7.552131E-2,-4.6245944E-2,2.5392542E-2],"split_indices":[11918,825,14456,5145,11099,0,3378,8851,14663,8971,0,0,6916,608,0,0,0,0,0,0,0,0,0],"split_type":[0,0,0,0,0,0,0,0,0,0,0,0,0,0,0,0,0,0,0,0,0,0,0],"sum_hessian":[1.6884613E1,1.1153388E1,5.731226E0,7.2061143E0,3.9472735E0,1.0460759E0,4.68515E0,3.1264946E0,4.0796194E0,2.8107157E0,1.1365577E0,1.1859573E0,3.4991927E0,2.1056879E0,1.0208068E0,1.0199323E0,3.0596871E0,1.521531E0,1.2891848E0,1.0360881E0,2.4631047E0,1.0052142E0,1.1004738E0],"tree_param":{"num_deleted":"0","num_feature":"14830","num_nodes":"23","size_leaf_vector":"0"}},{"base_weights":[3.550769E-2,2.5242236E-1,-1.9170156E-1,-3.1751627E-1,3.8904935E-1,-3.943112E-1,3.2310557E-1,-6.620891E-2,6.233245E-1,1.0720856E-1,-6.0754955E-1,-2.7028423E-2,5.187489E-1,-5.287674E-1,3.2888642E-1,7.6576436E-1,9.7175345E-2,-7.5565064E-1,-7.369902E-2],"categories":[],"categories_nodes":[],"categories_segments":[],"categories_sizes":[],"default_left":[1,1,1,0,0,1,1,1,1,0,1,0,0,0,0,0,0,0,0],"id":39,"left_children":[1,3,5,-1,7,9,11,13,15,-1,17,-1,-1,-1,-1,-1,-1,-1,-1],"loss_changes":[9.08668E-1,8.525021E-1,1.0759156E0,0E0,8.945886E-1,8.111526E-1,2.2759533E-1,8.3589417E-1,3.2866883E-1,0E0,3.4316087E-1,0E0,0E0,0E0,0E0,0E0,0E0,0E0,0E0],"parents":[2147483647,0,0,1,1,2,2,4,4,5,5,6,6,7,7,8,8,10,10],"right_children":[2,4,6,-1,8,10,12,14,16,-1,18,-1,-1,-1,-1,-1,-1,-1,-1],"split_conditions":[-9.536743E-7,-9.536743E-7,-9.536743E-7,-3.175163E-2,6.555556E-1,-9.536743E-7,-9.536743E-7,-9.536743E-7,-9.536743E-7,1.0720856E-2,-9.536743E-7,-2.7028422E-3,5.1874887E-2,-5.287674E-2,3.2888643E-2,7.6576434E-2,9.717534E-3,-7.556506E-2,-7.369902E-3],"split_indices":[11280,11887,2210,0,14487,6807,1520,9424,9885,0,10608,0,0,0,0,0,0,0,0],"split_type":[0,0,0,0,0,0,0,0,0,0,0,0,0,0,0,0,0,0,0],"sum_hessian":[1.645517E1,8.361526E0,8.093643E0,1.3608372E0,7.000688E0,5.975831E0,2.1178124E0,2.6222858E0,4.378402E0,1.9311514E0,4.0446796E0,1.0681108E0,1.0497016E0,1.0521504E0,1.5701354E0,3.0872145E0,1.291188E0,2.8410435E0,1.2036363E0],"tree_param":{"num_deleted":"0","num_feature":"14830","num_nodes":"19","size_leaf_vector":"0"}},{"base_weights":[3.303776E-2,-5.007065E-1,1.2216605E-1,-9.9654384E-2,3.7753323E-1,-3.4542453E-1,3.3001828E-1,-1.0360821E-1,5.336707E-1,2.9476205E-1,-6.2197506E-1,5.337701E-1,-1.1056462E-1,6.489362E-1,1.0785352E-2,-8.797789E-2,-7.494353E-1,7.710102E-1,2.0804302E-1],"categories":[],"categories_nodes":[],"categories_segments":[],"categories_sizes":[],"default_left":[0,0,1,1,1,0,0,0,1,0,1,0,0,1,0,0,0,0,0],"id":40,"left_children":[1,-1,3,5,7,9,11,-1,13,-1,15,-1,-1,17,-1,-1,-1,-1,-1],"loss_changes":[8.732002E-1,0E0,9.1171926E-1,1.0695819E0,6.098528E-1,1.2889752E0,4.005028E-1,0E0,3.3870554E-1,0E0,2.527814E-1,0E0,0E0,9.163952E-2,0E0,0E0,0E0,0E0,0E0],"parents":[2147483647,0,0,2,2,3,3,4,4,5,5,6,6,8,8,10,10,13,13],"right_children":[2,-1,4,6,8,10,12,-1,14,-1,16,-1,-1,18,-1,-1,-1,-1,-1],"split_conditions":[3.5348362E-1,-5.007065E-2,-9.536743E-7,-9.536743E-7,-9.536743E-7,1.048951E-2,4.4586208E-2,-1.0360821E-2,1.9480519E-2,2.9476205E-2,8.483871E-1,5.337701E-2,-1.1056462E-2,-9.536743E-7,1.0785352E-3,-8.79779E-3,-7.4943535E-2,7.710102E-2,2.0804303E-2],"split_indices":[14596,0,12400,12926,9138,14495,14761,0,14468,0,14576,0,0,9512,0,0,0,0,0],"split_type":[0,0,0,0,0,0,0,0,0,0,0,0,0,0,0,0,0,0,0],"sum_hessian":[1.6069616E1,1.6386646E0,1.4430951E1,8.049044E0,6.3819075E0,5.245007E0,2.8040369E0,1.6460366E0,4.735871E0,1.5623869E0,3.68262E0,1.7727177E0,1.0313191E0,3.6829329E0,1.0529381E0,1.0353286E0,2.6472914E0,2.297937E0,1.3849959E0],"tree_param":{"num_deleted":"0","num_feature":"14830","num_nodes":"19","size_leaf_vector":"0"}},{"base_weights":[3.1702783E-2,2.2934234E-1,-2.1069178E-1,3.469539E-1,-2.4680702E-1,-4.5150122E-1,3.8317794E-1,4.4224128E-1,-1.1646269E-1,-6.3711125E-1,2.2166695E-1,1.0644482E-1,6.2905836E-1,-7.4955016E-1,-1.8973634E-1,-3.9766458E-1,4.7796357E-1,7.153422E-1,1.9037393E-1],"categories":[],"categories_nodes":[],"categories_segments":[],"categories_sizes":[],"default_left":[1,1,1,1,0,1,0,1,0,1,0,1,0,0,0,0,0,0,0],"id":41,"left_children":[1,3,5,7,-1,9,-1,11,-1,13,-1,15,17,-1,-1,-1,-1,-1,-1],"loss_changes":[8.4864926E-1,6.2779295E-1,1.3206002E0,4.126864E-1,0E0,9.119656E-1,0E0,3.7171626E-1,0E0,1.1399484E-1,0E0,8.8365996E-1,2.617848E-2,0E0,0E0,0E0,0E0,0E0,0E0],"parents":[2147483647,0,0,1,1,2,2,3,3,5,5,7,7,9,9,11,11,12,12],"right_children":[2,4,6,8,-1,10,-1,12,-1,14,-1,16,18,-1,-1,-1,-1,-1,-1],"split_conditions":[6.25E-2,-9.536743E-7,-9.536743E-7,-9.536743E-7,-2.4680702E-2,-9.536743E-7,3.8317796E-2,-9.536743E-7,-1.164627E-2,-9.536743E-7,2.2166695E-2,-9.536743E-7,1.7016317E-1,-7.495502E-2,-1.8973634E-2,-3.9766457E-2,4.7796357E-2,7.1534224E-2,1.9037394E-2],"split_indices":[14496,4395,5102,9756,0,7128,0,10796,0,607,0,12926,14495,0,0,0,0,0,0],"split_type":[0,0,0,0,0,0,0,0,0,0,0,0,0,0,0,0,0,0,0],"sum_hessian":[1.5705967E1,8.681356E0,7.02461E0,7.179351E0,1.5020057E0,5.168539E0,1.8560711E0,5.992808E0,1.186543E0,4.093435E0,1.075104E0,2.7033756E0,3.2894323E0,2.7314882E0,1.3619467E0,1.117151E0,1.5862244E0,2.2217817E0,1.0676506E0],"tree_param":{"num_deleted":"0","num_feature":"14830","num_nodes":"19","size_leaf_vector":"0"}},{"base_weights":[3.0595317E-2,2.7818507E-1,-1.5720882E-1,4.171318E-1,-2.910428E-1,-6.6730404E-1,4.5282427E-2,-5.4212365E-2,6.133704E-1,-4.6597406E-1,2.4281646E-1,7.2069085E-1,1.1719404E-1,4.7013286E-1,-1.1484626E-1,6.120869E-1,2.2495128E-2,-3.9071897E-1,2.2166492E-1],"categories":[],"categories_nodes":[],"categories_segments":[],"categories_sizes":[],"default_left":[1,1,0,1,0,0,1,0,1,0,1,0,0,1,1,0,0,0,0],"id":42,"left_children":[1,3,5,7,-1,-1,9,-1,11,-1,13,-1,-1,15,17,-1,-1,-1,-1],"loss_changes":[8.044151E-1,7.0807475E-1,1.0571007E0,6.227449E-1,0E0,0E0,9.264365E-1,0E0,1.5947497E-1,0E0,5.797128E-1,0E0,0E0,2.4992841E-1,3.944817E-1,0E0,0E0,0E0,0E0],"parents":[2147483647,0,0,1,1,2,2,3,3,6,6,8,8,10,10,13,13,14,14],"right_children":[2,4,6,8,-1,-1,10,-1,12,-1,14,-1,-1,16,18,-1,-1,-1,-1],"split_conditions":[1.4193083E-1,-9.536743E-7,7.923729E-1,-9.536743E-7,-2.9104281E-2,-6.67304E-2,-9.536743E-7,-5.4212366E-3,-9.536743E-7,-4.6597406E-2,-9.536743E-7,7.2069086E-2,1.1719405E-2,-9.536743E-7,-9.536743E-7,6.120869E-2,2.2495128E-3,-3.90719E-2,2.2166492E-2],"split_indices":[14431,9756,14709,3378,0,0,822,0,11263,0,12028,0,0,9885,9014,0,0,0,0],"split_type":[0,0,0,0,0,0,0,0,0,0,0,0,0,0,0,0,0,0,0],"sum_hessian":[1.5359321E1,6.417552E0,8.941769E0,5.373174E0,1.0443776E0,1.8886368E0,7.053132E0,1.7922131E0,3.580961E0,1.5869194E0,5.4662123E0,2.5721326E0,1.0088285E0,3.1498394E0,2.316373E0,2.1125426E0,1.0372968E0,1.1843512E0,1.1320218E0],"tree_param":{"num_deleted":"0","num_feature":"14830","num_nodes":"19","size_leaf_vector":"0"}},{"base_weights":[2.6904931E-2,-7.5609185E-2,4.7831956E-1,1.1990737E-1,-3.71939E-1,1.467214E-1,5.7273275E-1,-1.02772914E-1,4.1432872E-1,-6.7535436E-1,-3.949933E-2,2.9086688E-1,-4.186017E-1,3.2278974E-2,6.4558774E-1,3.059215E-1,-3.6982185E-1,-5.2110426E-2,4.9736837E-1,2.3802355E-2,-6.365691E-1],"categories":[],"categories_nodes":[],"categories_segments":[],"categories_sizes":[],"default_left":[0,1,1,1,1,0,0,1,1,0,1,1,0,0,0,0,0,0,0,0,0],"id":43,"left_children":[1,3,5,7,9,-1,-1,11,13,-1,15,17,19,-1,-1,-1,-1,-1,-1,-1,-1],"loss_changes":[7.7718526E-1,8.506786E-1,1.3019145E-2,6.417219E-1,5.557727E-1,0E0,0E0,8.6824787E-1,3.444187E-1,0E0,5.4871804E-1,2.570196E-1,3.7594092E-1,0E0,0E0,0E0,0E0,0E0,0E0,0E0,0E0],"parents":[2147483647,0,0,1,1,2,2,3,3,4,4,7,7,8,8,10,10,11,11,12,12],"right_children":[2,4,6,8,10,-1,-1,12,14,-1,16,18,20,-1,-1,-1,-1,-1,-1,-1,-1],"split_conditions":[4.9679488E-1,-9.536743E-7,-9.536743E-7,-9.536743E-7,-9.536743E-7,1.467214E-2,5.7273276E-2,-9.536743E-7,-9.536743E-7,-6.753544E-2,-9.536743E-7,4.75E-1,8.548387E-1,3.2278975E-3,6.4558774E-2,3.059215E-2,-3.6982186E-2,-5.2110427E-3,4.973684E-2,2.3802356E-3,-6.365691E-2],"split_indices":[14524,3905,11976,10216,9139,0,0,10343,10419,0,9392,14414,14703,0,0,0,0,0,0,0,0],"split_type":[0,0,0,0,0,0,0,0,0,0,0,0,0,0,0,0,0,0,0,0,0],"sum_hessian":[1.5012922E1,1.2912957E1,2.0999649E0,8.138551E0,4.7744064E0,1.0314252E0,1.0685396E0,5.0044546E0,3.1340966E0,1.9568728E0,2.8175335E0,2.2629793E0,2.741475E0,1.6114659E0,1.5226307E0,1.4134002E0,1.4041333E0,1.1314352E0,1.1315441E0,1.1988968E0,1.5425785E0],"tree_param":{"num_deleted":"0","num_feature":"14830","num_nodes":"21","size_leaf_vector":"0"}},{"base_weights":[2.7569275E-2,-1.3632463E-1,3.1116495E-1,-3.3251026E-1,2.0930491E-1,5.047657E-1,-1.5933411E-1,1.0040211E-1,-6.310401E-1,-1.0913685E-1,5.571156E-1,-1.0917651E-2,6.705565E-1,3.3808646E-1,-2.0302935E-1,-7.195353E-1,-1.6820239E-1,-3.8849574E-1,2.180622E-1],"categories":[],"categories_nodes":[],"categories_segments":[],"categories_sizes":[],"default_left":[1,1,1,1,0,1,0,0,0,1,0,0,0,0,0,0,0,0,0],"id":44,"left_children":[1,3,5,7,9,11,-1,13,15,17,-1,-1,-1,-1,-1,-1,-1,-1,-1],"loss_changes":[7.707421E-1,7.9012036E-1,6.3094175E-1,9.893103E-1,5.5492043E-1,3.9391053E-1,0E0,3.4175938E-1,5.8282733E-2,3.7403026E-1,0E0,0E0,0E0,0E0,0E0,0E0,0E0,0E0,0E0],"parents":[2147483647,0,0,1,1,2,2,3,3,4,4,5,5,7,7,8,8,9,9],"right_children":[2,4,6,8,10,12,-1,14,16,18,-1,-1,-1,-1,-1,-1,-1,-1,-1],"split_conditions":[-9.536743E-7,-9.536743E-7,-9.536743E-7,-9.536743E-7,4.0909094E-1,-9.536743E-7,-1.5933411E-2,2.6923078E-1,3.75E-1,4.25E-1,5.5711564E-2,-1.0917651E-3,6.705565E-2,3.3808645E-2,-2.0302935E-2,-7.195353E-2,-1.6820239E-2,-3.8849574E-2,2.1806221E-2],"split_indices":[11918,825,8877,5145,14510,8832,0,14524,14524,14663,0,0,0,0,0,0,0,0,0],"split_type":[0,0,0,0,0,0,0,0,0,0,0,0,0,0,0,0,0,0,0],"sum_hessian":[1.4669728E1,9.626018E0,5.0437107E0,6.16475E0,3.4612675E0,3.5217516E0,1.521959E0,2.7869453E0,3.377805E0,2.1651547E0,1.2961127E0,1.0840429E0,2.4377089E0,1.49874E0,1.2882054E0,2.370034E0,1.0077709E0,1.0669054E0,1.0982494E0],"tree_param":{"num_deleted":"0","num_feature":"14830","num_nodes":"19","size_leaf_vector":"0"}},{"base_weights":[2.6015151E-2,2.5971043E-1,-1.551244E-1,-5.5726726E-2,5.238846E-1,-6.3816714E-1,3.56184E-2,3.7031606E-1,-3.906171E-1,3.8804095E-2,6.754748E-1,-4.4061187E-1,2.1944469E-1,4.3360743E-1,-1.1846245E-1,1.776938E-2,5.717336E-1,-3.639923E-1,1.981102E-1],"categories":[],"categories_nodes":[],"categories_segments":[],"categories_sizes":[],"default_left":[1,1,0,1,0,0,1,0,0,0,0,0,1,1,1,0,0,0,0],"id":45,"left_children":[1,3,5,7,9,-1,11,-1,-1,-1,-1,-1,13,15,17,-1,-1,-1,-1],"loss_changes":[6.8977946E-1,6.186349E-1,8.767911E-1,7.3359936E-1,2.639314E-1,0E0,7.613653E-1,0E0,0E0,0E0,0E0,0E0,4.9609983E-1,2.1821958E-1,3.1846446E-1,0E0,0E0,0E0,0E0],"parents":[2147483647,0,0,1,1,2,2,3,3,4,4,6,6,12,12,13,13,14,14],"right_children":[2,4,6,8,10,-1,12,-1,-1,-1,-1,-1,14,16,18,-1,-1,-1,-1],"split_conditions":[1.4193083E-1,-9.536743E-7,7.923729E-1,7.763158E-1,7.310345E-2,-6.381672E-2,-9.536743E-7,3.7031606E-2,-3.906171E-2,3.8804095E-3,6.7547485E-2,-4.4061188E-2,-9.536743E-7,4.1911763E-1,-9.536743E-7,1.776938E-3,5.717336E-2,-3.639923E-2,1.981102E-2],"split_indices":[14431,9139,14709,14533,14729,0,822,0,0,0,0,0,12028,14663,4867,0,0,0,0],"split_type":[0,0,0,0,0,0,0,0,0,0,0,0,0,0,0,0,0,0,0],"sum_hessian":[1.4343013E1,6.07354E0,8.269472E0,3.12782E0,2.94572E0,1.6769696E0,6.5925026E0,1.3300133E0,1.7978067E0,1.0004178E0,1.9453022E0,1.4469818E0,5.145521E0,2.976087E0,2.1694338E0,1.0234795E0,1.9526075E0,1.1374505E0,1.0319835E0],"tree_param":{"num_deleted":"0","num_feature":"14830","num_nodes":"19","size_leaf_vector":"0"}},{"base_weights":[2.4064552E-2,-1.3350205E-1,2.927321E-1,3.270564E-2,-5.329082E-1,4.804697E-1,-1.59094E-1,-1.5453105E-1,4.696154E-1,-7.4228453E-3,6.378353E-1,-5.8587354E-1,7.413801E-2,3.167413E-1,-2.4439241E-1,5.155766E-1,-5.3941365E-2],"categories":[],"categories_nodes":[],"categories_segments":[],"categories_sizes":[],"default_left":[1,1,1,1,0,1,0,0,0,0,0,0,1,1,0,0,0],"id":46,"left_children":[1,3,5,7,-1,9,-1,11,-1,-1,-1,-1,13,15,-1,-1,-1],"loss_changes":[6.74232E-1,6.908349E-1,5.734832E-1,7.35633E-1,0E0,3.4166205E-1,0E0,6.772871E-1,0E0,0E0,0E0,0E0,4.7055134E-1,2.7276608E-1,0E0,0E0,0E0],"parents":[2147483647,0,0,1,1,2,2,3,3,5,5,7,7,12,12,13,13],"right_children":[2,4,6,8,-1,10,-1,12,-1,-1,-1,-1,14,16,-1,-1,-1],"split_conditions":[-9.536743E-7,-9.536743E-7,-9.536743E-7,-9.536743E-7,-5.329082E-2,-9.536743E-7,-1.5909402E-2,1.875E-1,4.6961542E-2,-7.422845E-4,6.3783534E-2,-5.8587354E-2,-9.536743E-7,1.4193083E-1,-2.4439242E-2,5.155766E-2,-5.3941365E-3],"split_indices":[11918,11099,8877,826,0,8832,0,14496,0,0,0,0,27,14431,0,0,0],"split_type":[0,0,0,0,0,0,0,0,0,0,0,0,0,0,0,0,0],"sum_hessian":[1.4003691E1,9.144041E0,4.8596497E0,7.105355E0,2.0386868E0,3.3883612E0,1.4712883E0,5.4262547E0,1.6791E0,1.0587304E0,2.3296309E0,1.3387827E0,4.087472E0,2.3234627E0,1.7640091E0,1.2578592E0,1.0656035E0],"tree_param":{"num_deleted":"0","num_feature":"14830","num_nodes":"17","size_leaf_vector":"0"}},{"base_weights":[2.2275927E-2,-1.5812711E-1,2.477703E-1,2.5075218E-1,-3.4154624E-1,3.8535297E-1,-1.7968468E-1,4.586718E-1,-6.2427852E-2,-5.0516607E-4,-6.3683E-1,-5.9726898E-2,5.7200414E-1,2.96844E-1,-4.046529E-1],"categories":[],"categories_nodes":[],"categories_segments":[],"categories_sizes":[],"default_left":[1,0,1,1,1,1,0,0,0,1,0,0,0,0,0],"id":47,"left_children":[1,3,5,7,9,11,-1,-1,-1,13,-1,-1,-1,-1,-1],"loss_changes":[6.3742787E-1,7.441421E-1,4.7655347E-1,2.4323812E-1,6.5271384E-1,4.9584752E-1,0E0,0E0,0E0,6.0201186E-1,0E0,0E0,0E0,0E0,0E0],"parents":[2147483647,0,0,1,1,2,2,3,3,4,4,5,5,9,9],"right_children":[2,4,6,8,10,12,-1,-1,-1,14,-1,-1,-1,-1,-1],"split_conditions":[-9.536743E-7,4.4586208E-2,-9.536743E-7,1.4193083E-1,-9.536743E-7,-9.536743E-7,-1.7968468E-2,4.5867182E-2,-6.242785E-3,-9.536743E-7,-6.3682996E-2,-5.97269E-3,5.7200413E-2,2.96844E-2,-4.046529E-2],"split_indices":[12400,14761,10008,14431,9549,1940,0,0,0,11184,0,0,0,0,0],"split_type":[0,0,0,0,0,0,0,0,0,0,0,0,0,0,0],"sum_hessian":[1.3706259E1,7.7804174E0,5.925841E0,2.2957082E0,5.4847093E0,4.5574527E0,1.3683885E0,1.1005152E0,1.1951929E0,3.009995E0,2.4747145E0,1.5474594E0,3.009993E0,1.8870881E0,1.1229069E0],"tree_param":{"num_deleted":"0","num_feature":"14830","num_nodes":"15","size_leaf_vector":"0"}},{"base_weights":[2.0125099E-2,2.1495174E-1,-1.8910488E-1,-3.0357262E-1,3.4608775E-1,-3.7730798E-1,2.7932972E-1,-6.35087E-2,5.4727906E-1,-6.3861877E-1,-1.8596482E-2,-3.8787827E-1,2.733764E-1,6.672799E-1,8.259414E-2,-2.8892374E-1,2.4866207E-1],"categories":[],"categories_nodes":[],"categories_segments":[],"categories_sizes":[],"default_left":[1,1,1,0,0,0,0,1,1,0,1,0,0,0,0,0,0],"id":48,"left_children":[1,3,5,-1,7,9,-1,11,13,-1,15,-1,-1,-1,-1,-1,-1],"loss_changes":[6.296834E-1,6.456803E-1,7.665514E-1,0E0,5.9619826E-1,5.2948016E-1,0E0,4.491833E-1,2.0545447E-1,0E0,3.2211247E-1,0E0,0E0,0E0,0E0,0E0,0E0],"parents":[2147483647,0,0,1,1,2,2,4,4,5,5,7,7,8,8,10,10],"right_children":[2,4,6,-1,8,10,-1,12,14,-1,16,-1,-1,-1,-1,-1,-1],"split_conditions":[-9.536743E-7,-9.536743E-7,-9.536743E-7,-3.0357262E-2,6.555556E-1,3.24E-1,2.7932972E-2,-9.536743E-7,-9.536743E-7,-6.386188E-2,-9.536743E-7,-3.8787827E-2,2.733764E-2,6.672799E-2,8.259415E-3,-2.8892374E-2,2.4866207E-2],"split_indices":[11280,11887,2210,0,14487,14646,0,9425,9885,0,9885,0,0,0,0,0,0],"split_type":[0,0,0,0,0,0,0,0,0,0,0,0,0,0,0,0,0],"sum_hessian":[1.3450032E1,6.950581E0,6.4994516E0,1.1375712E0,5.8130097E0,4.77538E0,1.7240715E0,2.1402028E0,3.6728072E0,2.3113308E0,2.4640493E0,1.0132393E0,1.1269634E0,2.572498E0,1.100309E0,1.184691E0,1.2793584E0],"tree_param":{"num_deleted":"0","num_feature":"14830","num_nodes":"17","size_leaf_vector":"0"}},{"base_weights":[1.7819325E-2,1.7119801E-1,-2.3893517E-1,-9.259295E-2,3.805644E-1,3.0715978E-1,-4.948897E-1,1.8601087E-1,-4.3522847E-1,-1.3764797E-1,5.2837443E-1,-7.072065E-1,9.854094E-2,-2.0283186E-1,4.4506717E-1,5.689146E-2,6.949267E-1],"categories":[],"categories_nodes":[],"categories_segments":[],"categories_sizes":[],"default_left":[1,1,1,1,1,0,1,1,0,0,0,0,0,0,0,0,0],"id":49,"left_children":[1,3,5,7,9,-1,11,13,-1,-1,15,-1,-1,-1,-1,-1,-1],"loss_changes":[5.989843E-1,5.573864E-1,9.511259E-1,5.570811E-1,4.9145132E-1,0E0,6.08397E-1,4.3794838E-1,0E0,0E0,3.1069577E-1,0E0,0E0,0E0,0E0,0E0,0E0],"parents":[2147483647,0,0,1,1,2,2,3,3,4,4,6,6,7,7,10,10],"right_children":[2,4,6,8,10,-1,12,14,-1,-1,16,-1,-1,-1,-1,-1,-1],"split_conditions":[-9.536743E-7,-9.536743E-7,3.6896553E-2,2.6602566E-1,-9.536743E-7,3.0715978E-2,4.983766E-1,3.6065573E-1,-4.3522846E-2,-1.3764798E-2,2.6866668E-1,-7.072065E-2,9.854094E-3,-2.0283187E-2,4.4506717E-2,5.689146E-3,6.949267E-2],"split_indices":[3905,9012,14729,14524,12176,0,14439,14596,0,0,14646,0,0,0,0,0,0],"split_type":[0,0,0,0,0,0,0,0,0,0,0,0,0,0,0,0,0],"sum_hessian":[1.3171396E1,8.454258E0,4.7171383E0,3.9877028E0,4.466555E0,1.4415165E0,3.2756217E0,2.4514759E0,1.5362269E0,1.0065182E0,3.4600368E0,2.2712805E0,1.0043412E0,1.066979E0,1.3844968E0,1.2534113E0,2.2066255E0],"tree_param":{"num_deleted":"0","num_feature":"14830","num_nodes":"17","size_leaf_vector":"0"}},{"base_weights":[1.7045965E-2,3.8220692E-1,-9.247682E-2,5.278347E-1,3.8902257E-2,-3.168533E-1,1.6963692E-1,-5.5009425E-1,1.64858E-1,3.2461852E-1,-2.5183892E-1,-6.8203986E-1,-5.45522E-2,4.589746E-1,-4.7718637E-2,5.4846513E-1,1.6073282E-1],"categories":[],"categories_nodes":[],"categories_segments":[],"categories_sizes":[],"default_left":[1,1,1,0,0,0,1,1,0,1,0,0,0,1,0,0,0],"id":50,"left_children":[1,3,5,-1,-1,7,9,11,-1,13,-1,-1,-1,15,-1,-1,-1],"loss_changes":[5.8946484E-1,1.4902872E-1,7.279518E-1,0E0,0E0,8.2381797E-1,4.6966082E-1,2.653284E-1,0E0,2.6096493E-1,0E0,0E0,0E0,8.08233E-3,0E0,0E0,0E0],"parents":[2147483647,0,0,1,1,2,2,5,5,6,6,7,7,9,9,13,13],"right_children":[2,4,6,-1,-1,8,10,12,-1,14,-1,-1,-1,16,-1,-1,-1],"split_conditions":[7.850877E-1,-9.536743E-7,-9.536743E-7,5.278347E-2,3.8902257E-3,2.4423632E-1,-9.536743E-7,-9.536743E-7,1.6485801E-2,-9.536743E-7,-2.5183892E-2,-6.8203986E-2,-5.45522E-3,1.4553314E-1,-4.7718636E-3,5.4846514E-2,1.6073283E-2],"split_indices":[14533,11271,1940,0,0,14431,11099,3966,0,11782,0,0,0,14431,0,0,0],"split_type":[0,0,0,0,0,0,0,0,0,0,0,0,0,0,0,0,0],"sum_hessian":[1.285526E1,2.391613E0,1.0463647E1,1.3018606E0,1.0897524E0,5.525139E0,4.938508E0,3.6270099E0,1.8981287E0,3.778803E0,1.159705E0,2.5671232E0,1.0598867E0,2.6058197E0,1.1729833E0,1.359033E0,1.2467868E0],"tree_param":{"num_deleted":"0","num_feature":"14830","num_nodes":"17","size_leaf_vector":"0"}},{"base_weights":[1.8329509E-2,-1.2493451E-1,2.887071E-1,1.0230164E-1,-3.9169294E-1,-1.422995E-1,5.2417535E-1,-1.4161883E-1,3.6105576E-1,1.2174811E-1,-6.35891E-1,1.5828577E-1,6.5452194E-1,-4.3956518E-1,2.6334476E-1,8.293117E-2,4.658355E-1],"categories":[],"categories_nodes":[],"categories_segments":[],"categories_sizes":[],"default_left":[0,0,0,1,0,0,1,1,0,0,0,0,0,0,0,0,0],"id":51,"left_children":[1,3,5,7,9,-1,11,13,15,-1,-1,-1,-1,-1,-1,-1,-1],"loss_changes":[5.635463E-1,6.219368E-1,5.8390045E-1,4.2833608E-1,6.570086E-1,0E0,6.136191E-2,5.7361054E-1,5.4089904E-2,0E0,0E0,0E0,0E0,0E0,0E0,0E0,0E0],"parents":[2147483647,0,0,1,1,2,2,3,3,4,4,6,6,7,7,8,8],"right_children":[2,4,6,8,10,-1,12,14,16,-1,-1,-1,-1,-1,-1,-1,-1],"split_conditions":[4.75E-1,2.5320512E-1,6.586207E-2,3.5348362E-1,7.191781E-2,-1.42299505E-2,-9.536743E-7,-9.536743E-7,2.7133334E-1,1.2174811E-2,-6.35891E-2,1.5828578E-2,6.5452196E-2,-4.395652E-2,2.6334478E-2,8.293117E-3,4.6583552E-2],"split_indices":[14549,14524,14729,14596,14714,0,9443,156,14646,0,0,0,0,0,0,0,0],"split_type":[0,0,0,0,0,0,0,0,0,0,0,0,0,0,0,0,0],"sum_hessian":[1.2617443E1,8.5990305E0,4.018412E0,4.9764123E0,3.6226184E0,1.5595146E0,2.4588976E0,2.7946558E0,2.1817565E0,1.3292431E0,2.2933755E0,1.227523E0,1.2313745E0,1.5608433E0,1.2338125E0,1.0872555E0,1.0945011E0],"tree_param":{"num_deleted":"0","num_feature":"14830","num_nodes":"17","size_leaf_vector":"0"}},{"base_weights":[2.0577261E-2,2.4004632E-1,-1.5053757E-1,-1.1837416E-1,4.3105447E-1,2.788063E-2,-5.9083277E-1,5.682693E-1,4.0836796E-2,-3.917795E-1,1.9189163E-1,3.9146358E-1,-1.21331826E-1,5.4649425E-1,2.6163377E-2],"categories":[],"categories_nodes":[],"categories_segments":[],"categories_sizes":[],"default_left":[1,1,1,0,1,1,0,0,0,0,1,0,0,0,0],"id":52,"left_children":[1,3,5,-1,7,9,-1,-1,-1,-1,11,13,-1,-1,-1],"loss_changes":[5.3778726E-1,4.7805607E-1,6.543871E-1,0E0,2.0620275E-1,5.3865117E-1,0E0,0E0,0E0,0E0,3.92103E-1,1.8979996E-1,0E0,0E0,0E0],"parents":[2147483647,0,0,1,1,2,2,4,4,5,5,10,10,11,11],"right_children":[2,4,6,-1,8,10,-1,-1,-1,-1,12,14,-1,-1,-1],"split_conditions":[1.4193083E-1,-9.536743E-7,7.876712E-2,-1.1837416E-2,5.1204824E-1,-9.536743E-7,-5.908328E-2,5.682693E-2,4.0836795E-3,-3.917795E-2,-9.536743E-7,4.3123543E-2,-1.2133183E-2,5.4649424E-2,2.6163377E-3],"split_indices":[14431,3378,14714,0,14752,822,0,0,0,0,12028,14495,0,0,0],"split_type":[0,0,0,0,0,0,0,0,0,0,0,0,0,0,0],"sum_hessian":[1.2357985E1,5.2375503E0,7.120434E0,1.9530267E0,3.2845237E0,5.7336845E0,1.3867493E0,2.0924525E0,1.1920713E0,1.2209252E0,4.5127597E0,2.6038883E0,1.9088712E0,1.4798408E0,1.1240475E0],"tree_param":{"num_deleted":"0","num_feature":"14830","num_nodes":"15","size_leaf_vector":"0"}},{"base_weights":[1.8460995E-2,-1.3242589E-1,2.691593E-1,-3.0975932E-1,1.7265885E-1,4.384465E-1,-1.40504E-1,7.279455E-2,-5.8208585E-1,-1.1350226E-1,4.7773933E-1,2.0596802E-2,5.9554017E-1,-1.9205692E-1,2.912824E-1],"categories":[],"categories_nodes":[],"categories_segments":[],"categories_sizes":[],"default_left":[1,1,1,1,0,1,0,1,0,0,0,0,0,0,0],"id":53,"left_children":[1,3,5,7,9,11,-1,13,-1,-1,-1,-1,-1,-1,-1],"loss_changes":[5.3296435E-1,5.337801E-1,4.2704973E-1,6.6455483E-1,3.9518014E-1,2.4842209E-1,0E0,2.5108922E-1,0E0,0E0,0E0,0E0,0E0,0E0,0E0],"parents":[2147483647,0,0,1,1,2,2,3,3,4,4,5,5,7,7],"right_children":[2,4,6,8,10,12,-1,14,-1,-1,-1,-1,-1,-1,-1],"split_conditions":[-9.536743E-7,-9.536743E-7,-9.536743E-7,-9.536743E-7,4.0909094E-1,-9.536743E-7,-1.4050401E-2,-9.536743E-7,-5.8208585E-2,-1.1350226E-2,4.7773935E-2,2.0596802E-3,5.9554018E-2,-1.9205693E-2,2.9128239E-2],"split_indices":[11918,825,8877,5145,14510,2172,0,12930,0,0,0,0,0,0,0],"split_type":[0,0,0,0,0,0,0,0,0,0,0,0,0,0,0],"sum_hessian":[1.214721E1,7.8776746E0,4.2695355E0,4.9722085E0,2.9054658E0,2.971392E0,1.2981437E0,2.372336E0,2.5998726E0,1.8232466E0,1.0822194E0,1.1209406E0,1.8504515E0,1.1270705E0,1.2452655E0],"tree_param":{"num_deleted":"0","num_feature":"14830","num_nodes":"15","size_leaf_vector":"0"}},{"base_weights":[1.9579595E-2,-1.0721391E-1,3.1083766E-1,1.0601979E-1,-3.7143674E-1,-1.503662E-1,5.4228383E-1,3.227374E-1,-1.8528707E-1,-2.5741796E-3,-6.397435E-1,-1.0776682E-2,5.331753E-1,-4.570348E-1,2.0907964E-1],"categories":[],"categories_nodes":[],"categories_segments":[],"categories_sizes":[],"default_left":[0,0,1,1,1,0,0,1,1,0,0,0,0,0,0],"id":54,"left_children":[1,3,5,7,9,-1,-1,11,13,-1,-1,-1,-1,-1,-1],"loss_changes":[5.104081E-1,5.8837E-1,5.271592E-1,4.4933587E-1,4.5101124E-1,0E0,0E0,2.7966118E-1,4.4572297E-1,0E0,0E0,0E0,0E0,0E0,0E0],"parents":[2147483647,0,0,1,1,2,2,3,3,4,4,7,7,8,8],"right_children":[2,4,6,8,10,-1,-1,12,14,-1,-1,-1,-1,-1,-1],"split_conditions":[3.9423078E-1,2.5320512E-1,-9.536743E-7,-9.536743E-7,8.2894737E-1,-1.503662E-2,